{
  "type" : "oneVsAllClassifier",
  "binaryClassifiers" : [ {
    "type" : "kernelMachineClassifier",
    "positiveClass" : {
      "labelType" : "StringLabel",
      "className" : "price"
    },
    "model" : {
      "type" : ".BinaryKernelMachineModel",
      "bias" : 0.0,
      "kernel" : {
        "kernelType" : "linearComb",
        "kernelID" : 1,
        "toCombine" : [ {
          "kernelType" : "poly",
          "kernelID" : 2,
          "baseKernel" : {
            "kernelType" : "norm",
            "kernelID" : 3,
            "baseKernel" : {
              "kernelType" : "linear",
              "kernelID" : 4,
              "representation" : "0"
            }
          },
          "degree" : 2.0,
          "a" : 1.0,
          "b" : 0.0
        }, {
          "kernelType" : "rbf",
          "kernelID" : 5,
          "baseKernel" : {
            "kernelType" : "norm",
            "kernelID" : 6,
            "baseKernel" : {
              "kernelType" : "linear",
              "kernelID" : 7,
              "representation" : "1"
            }
          },
          "gamma" : 2.0
        } ],
        "weights" : [ 0.5, 0.5 ]
      },
      "supportVectors" : [ {
        "weight" : -0.8,
        "instance" : {
          "type" : "simple",
          "ID" : 8,
          "classificationLabels" : [ {
            "labelType" : "StringLabel",
            "className" : "food"
          } ],
          "representations" : {
            "3" : {
              "type" : "S",
              "charArray" : "32897564#894393#2",
              "content" : "32897564#894393#2"
            },
            "2" : {
              "type" : "S",
              "charArray" : "The bread is top notch as well .",
              "content" : "The bread is top notch as well ."
            },
            "1" : {
              "type" : "DV",
              "content" : "0.38412943 0.21114713 0.066153914 0.18158175 0.08750954 -0.05773994 -0.16575153 0.019434724 0.14869967 -0.025771653 -0.05535224 0.018430779 0.1469762 0.07001311 -0.040201258 -0.017072115 -0.019450417 0.042749174 -0.03573659 -0.036266558 -0.013290271 -0.015464371 0.10286379 -0.082534105 0.021789111 -0.056674644 0.056416806 0.0031215919 -0.07869854 -0.027498977 -0.03326522 0.08458035 0.027142879 0.06100489 -0.0017007603 0.0726417 1.7372139E-4 -0.10494973 -0.102939054 -6.6171045E-4 0.03527319 0.07610633 -0.03708104 0.012397107 -0.09283272 -0.04818283 -0.052637648 -0.014689168 0.09583879 0.06910807 -0.013866321 0.040979106 -0.008916015 -0.043035313 -0.054692592 -0.029920295 0.03880638 0.0126946345 0.104512714 0.007333404 0.02613776 -0.00973377 0.062067006 0.03893527 -0.005547624 0.036928426 -0.033143267 -0.00852419 -0.03603297 0.03250243 -0.020785661 -0.04024058 0.0028512054 -0.011915712 -0.034413707 0.07875295 -0.06345771 0.0357956 0.03932162 0.010845657 0.052767757 0.039208863 0.061449096 -0.004706075 -0.046400502 0.0027355703 0.02513501 -0.021060752 0.053244162 -0.039411426 -0.03516767 0.069054194 -0.0116331205 0.018498484 -0.03150357 -0.01985877 0.04445942 -0.048586246 0.06466701 0.040055465 -0.013278001 -0.012814373 0.07420871 -0.016303286 0.0016584258 0.0011638785 -0.058830235 0.042442538 0.0778871 -0.0035187989 0.07483228 -0.04615463 0.04416016 0.012327044 0.102000885 -0.059817716 -0.03715822 0.12663817 -0.04136852 -0.036405656 -0.104360946 -0.028213011 0.015160602 -0.058230177 0.06895836 0.072044484 -0.060995907 -0.043595433 0.080927655 -0.0515009 0.0674141 0.09442665 0.015910676 -0.08266844 0.07551853 -0.023206502 0.025344377 -0.008951899 -0.10115147 0.0017601192 0.009629282 -0.06028037 -0.032594424 0.05173192 -0.075810835 -0.024719438 0.035699558 -0.07581984 -0.100311846 0.03734231 0.019345753 0.0033624277 0.1352256 -0.091011554 0.11670973 0.033859253 -0.1010374 0.008866282 -0.04720195 0.09346627 -2.0387766E-4 -0.09410475 -0.045291718 0.018925257 0.05163516 -0.02064792 -0.020271135 0.0029770029 -0.05017827 -0.06521976 0.008129917 -0.090688154 0.050975554 -0.009733277 -0.041238055 0.027432952 -0.02419712 -0.07129625 -0.06152495 -0.05859573 -0.046503313 -0.03847995 0.014789674 -0.0013272284 0.023598967 -0.0109249195 -0.008908662 0.0784716 0.014700972 0.11195959 -0.11901582 0.058030434 -0.001165775 0.051686667 -0.043858193 -0.039447676 0.028978324 0.053821877 -0.07811722 0.031265404 -0.079566516 -0.023598237 0.072487794 -0.01590653 -0.06487748 0.045491744 -0.038299628 0.06906798 -0.036117557 -0.0058948467 0.020190964 -0.01568917 -0.058288626 -0.06609754 0.14431062 0.005574002 0.0422472 -0.041253056 0.099229224 -0.022813035 0.022923088 0.0276441 -0.022396363 -0.04964312 -0.1418802 -0.036400054 -0.06505921 0.031333473 0.07080586 -0.05444295 0.09691162 0.009132761 -0.009035101 0.03049239 -0.032260045 0.07254121 -0.020297758 -0.020461265 0.063563354 -0.0086501315 0.0031214699 0.014481394 -0.08383517 -0.015803918 3.3629686E-4 -0.03291351 -0.0435349 0.037425954 0.0043985406 0.015475802"
            },
            "0" : {
              "type" : "V"
            }
          }
        }
      }, {
        "weight" : -0.77856475,
        "instance" : {
          "type" : "simple",
          "ID" : 9,
          "classificationLabels" : [ {
            "labelType" : "StringLabel",
            "className" : "service"
          } ],
          "representations" : {
            "3" : {
              "type" : "S",
              "charArray" : "33070600#670328#0",
              "content" : "33070600#670328#0"
            },
            "2" : {
              "type" : "S",
              "charArray" : "I have to say they have one of the fastest delivery times in the city .",
              "content" : "I have to say they have one of the fastest delivery times in the city ."
            },
            "1" : {
              "type" : "DV",
              "content" : "0.46798956 0.20483235 -0.065062754 -0.16454405 0.04703727 0.05613429 -0.02958863 -0.069151804 0.046589825 0.011568514 -0.060731035 -0.10860062 -0.029909004 0.17594151 -0.06635097 -0.08503677 0.073637724 -0.010143674 0.0127547765 0.019952472 -0.012185551 -0.04018232 -0.10277609 0.062311776 -0.093995616 0.07613594 -0.017748943 -0.023542382 0.039884306 0.07583029 -0.061834402 0.003660745 -0.01093003 0.040746953 -0.11132394 0.097167276 -0.02758513 0.040970653 -0.023338826 0.10007857 -0.100596026 0.07476066 -0.07247024 -0.08350834 0.049871936 0.037545472 -0.0046555544 0.04420206 -0.111866 0.027187036 -0.03382192 -0.04943566 -0.052397516 0.0062366137 -0.024047062 0.04859521 -0.081112 -0.02731165 0.029431937 -0.045101915 -0.005726888 0.0034835932 -0.048085917 0.008761408 0.08609159 -0.019461662 0.0030412714 -0.1676786 0.069249965 -0.08904833 0.0070585194 -0.080343485 -0.012674891 -0.009992764 0.025047658 0.038695082 -0.057214487 0.05645428 -0.0612391 0.10007346 -0.09095473 -0.064297386 -0.05003077 0.032813553 -0.021249602 0.042532522 0.03764905 -0.04971817 0.090421796 0.04781179 -0.048679337 0.07197225 0.014232938 -0.1339677 0.06588356 -0.020004194 -0.03667856 -0.01687312 -0.02736878 -0.102971 -0.039445505 0.03541051 -0.047262315 -0.05981208 -0.06819765 0.04062107 0.05714066 -0.00463819 0.033151213 0.0043822024 0.02452063 -0.04198768 -0.06824319 -0.03392962 0.041943192 -0.014777718 -0.005043093 -0.10796462 -0.03614949 -0.012864954 0.08043039 -0.07478283 -0.046779316 0.11058868 0.022731323 0.05543918 -0.011177345 0.001087692 0.04533268 0.045286935 -0.056469284 0.028959664 -0.018395446 0.04326728 -0.0072425553 0.021004997 -0.11785427 -5.856344E-4 0.011628493 -0.09693441 0.043762304 0.04048315 -0.011395372 0.063749 0.0046279486 -0.033414662 0.06766283 0.088158526 0.016421396 0.036287475 -0.04869024 0.020014362 -0.008609667 -0.01109101 -0.1075181 -0.042058088 -0.031557854 0.018133974 -0.043915614 0.044616345 0.03809968 0.031036159 -0.0049225334 -0.0062205372 -0.08908693 -0.019500336 0.021321615 -0.07166018 -0.04169621 0.023967758 0.0924927 0.09159963 0.04020723 0.060460716 -0.025321899 0.05663197 -0.13972718 0.047698352 -0.0039868266 0.03681302 0.036031406 -0.025150476 0.03957004 -0.07959942 -0.015486785 0.08847068 0.040334716 0.014384071 -0.059009243 0.036541715 -0.01894352 0.03331862 -0.040826835 0.023304079 0.0037348052 -0.099831484 0.075338624 -0.005022676 -0.03610112 -0.030443098 -0.014048792 -0.04656719 -0.032097925 -0.0054624574 -0.021488266 -0.03172306 0.06068474 -0.010331936 -0.02730694 -0.0071133347 -0.01744743 0.015001185 -9.321529E-4 0.034468308 -0.06542715 -0.015105331 0.0065395944 0.04043585 -0.06521487 -0.009315258 -0.0012971134 0.007041335 0.024544816 0.022494685 -0.043570504 -0.0457457 0.06334742 0.048328176 0.025583131 -0.014419674 -0.026293544 0.012713038 0.027813546 0.01298778 0.010069683 0.007450096 -0.021271965 0.038882177 0.013293964 -0.0021143786 -0.015373082 0.04828398 -0.018193962 -0.050286584 0.04438704 -0.004983955 -0.100452304 0.0570293 0.0064297356 0.05017955"
            },
            "0" : {
              "type" : "V"
            }
          }
        }
      }, {
        "weight" : -0.74774987,
        "instance" : {
          "type" : "simple",
          "ID" : 10,
          "classificationLabels" : [ {
            "labelType" : "StringLabel",
            "className" : "food"
          } ],
          "representations" : {
            "3" : {
              "type" : "S",
              "charArray" : "33071731#1007204#3",
              "content" : "33071731#1007204#3"
            },
            "2" : {
              "type" : "S",
              "charArray" : "In fact , this was not a Nicoise salad and was barely eatable .",
              "content" : "In fact , this was not a Nicoise salad and was barely eatable ."
            },
            "1" : {
              "type" : "DV",
              "content" : "0.44571775 0.2042185 0.18128563 -0.013273549 0.16636129 -0.058362182 -0.105442904 -0.078429654 0.31689444 0.036929566 0.05996418 0.14183089 0.107841186 0.24492598 0.07478558 0.07091222 -0.04148929 0.042236798 0.0425149 -0.14990838 -0.10213382 -0.029179689 -0.028881276 -0.0074728085 -0.1078879 0.03652228 0.05207522 -0.025084075 -0.04167809 -0.030586133 -0.0038489127 0.032228075 -0.083095215 0.08172626 0.050266434 0.05174509 0.036898352 -0.053685997 0.054767158 0.047529653 -0.0047572413 0.006137898 -0.016936837 0.04486028 0.029866513 0.0553111 -3.1726388E-4 0.03238098 0.0020631775 0.045897044 -0.016925596 -0.08016047 0.06389866 0.01976911 0.013650594 0.032056786 0.01083688 -0.016723312 0.028693965 -0.0052572647 0.008772498 0.10279041 0.032265734 -0.007438635 -0.03016302 -0.010539052 -0.053767268 0.001889489 -0.0082982145 -0.027351776 0.046243515 0.0579685 -0.08389625 -0.03831517 0.004751247 0.040447745 -0.030365605 -7.572247E-4 0.07072875 0.0066641523 -0.049816724 0.034366336 -0.041357674 -0.037627336 0.06867849 -0.054773103 0.0022243708 0.095924854 0.06492328 0.038951855 -0.033566203 -0.02093556 0.0034364453 0.03372376 -0.011907165 0.014989375 0.087348014 0.009196362 -0.03468336 0.106425546 -0.002809771 -0.11123296 0.039839108 0.1041466 -0.0014196994 -8.008862E-4 0.0038428104 0.054947376 0.00749355 -0.0036058833 0.051398702 -0.032024138 0.044515822 0.053793736 -0.023769392 -0.014469281 -0.024815608 -0.063385926 0.021360258 0.049543057 0.012402769 -0.019198097 0.015332705 0.05366603 -0.04577083 0.07710544 -0.0062281233 0.0961695 0.08263489 0.03376773 0.021029832 0.01716937 0.05736154 -0.020622255 0.010382869 0.04574232 -0.019773941 0.01794043 -0.030031608 0.003599348 0.018898759 -0.053531595 -0.006246854 -0.04153939 0.054227002 0.04055313 -0.04841438 0.028856333 -0.044805553 0.05103632 -0.026815742 -0.12518449 0.026399184 0.013602419 0.063359775 -0.0076857484 -0.03377019 -0.0079558 0.014048321 0.02130305 0.054942783 -0.059387494 0.031271804 2.4900516E-4 0.0062011597 0.055057533 -0.012113495 0.07366673 -0.03244336 -0.0017425122 0.0012929846 -0.025840078 0.014740546 0.03677705 0.0100646475 0.032831658 -0.02202138 -0.047639538 -0.023265833 -0.030809466 0.013644942 0.028758936 -0.002229646 0.033553317 -0.0062390626 0.04831478 0.058882862 -0.024883565 -0.049540132 -0.007628303 -0.07938194 0.0641861 0.032398183 -0.053315792 0.031905446 0.027725197 -0.041324906 -0.062101375 0.04401317 -0.026889462 0.03526002 -0.01659377 -0.039364446 0.005165017 -0.05389438 1.7052937E-4 0.014652734 0.011599435 0.0062026773 0.00827064 0.0209686 0.061668333 0.03980921 -0.062063415 -0.003696826 0.044286396 -0.007853655 0.061745428 0.019115616 -0.0019430163 0.009932066 -0.031416498 0.02308405 -0.03940095 0.022037946 -0.022193613 -0.022413 -0.040277936 0.048859917 0.07531377 -0.09263651 0.05300857 0.05324791 -0.0059347525 0.06743428 0.07489307 0.05225814 0.05255384 -0.02154157 0.017566027 -0.0016042431 0.037039485 0.030691018 0.022602692 0.058139134 0.088597715 -0.005357863 0.013548508 0.054991584 -0.025887383"
            },
            "0" : {
              "type" : "V"
            }
          }
        }
      }, {
        "weight" : -0.66272986,
        "instance" : {
          "type" : "simple",
          "ID" : 11,
          "classificationLabels" : [ {
            "labelType" : "StringLabel",
            "className" : "food"
          } ],
          "representations" : {
            "3" : {
              "type" : "S",
              "charArray" : "36245348#821441#2",
              "content" : "36245348#821441#2"
            },
            "2" : {
              "type" : "S",
              "charArray" : "The worst though was the taste .",
              "content" : "The worst though was the taste ."
            },
            "1" : {
              "type" : "DV",
              "content" : "0.36856374 0.23323633 0.07134071 0.036573302 0.035081618 -0.13689746 -0.21925938 -0.02394429 0.15042518 0.0030269816 0.036343962 0.07328356 -0.07087782 0.19162558 -0.0121924225 0.06754946 -0.008632227 0.08955904 -0.013042561 -0.17738606 -0.013362222 -0.010708184 0.09139185 -0.05532147 0.05825452 0.02138081 0.0114770755 0.031262625 0.039414298 -0.026929779 -0.07300065 -0.04532657 0.0026340585 0.09311252 -0.005178288 0.2058038 -0.060855635 0.07348281 -0.01609891 0.027548509 0.046439756 -0.004633594 0.061616067 0.040209588 -0.069290355 0.023283819 -0.029564835 0.05880881 -0.0023775983 0.02472434 0.037205428 0.012119032 0.040200103 -0.02990619 -0.060362335 -0.044179067 0.029346844 0.053717032 0.05581334 0.03333154 0.09974388 0.10551886 -0.088422224 -0.051652785 -0.09922388 0.06471813 0.022358868 -0.0042377966 -0.0076773013 -0.014307461 0.033605263 0.06697032 -0.0061084335 0.002571061 0.0019083341 -0.024849292 0.0020018178 0.0733388 0.0024923899 0.053680606 -0.039176583 0.016723448 0.022176243 0.017473964 -0.0035591281 0.025509814 -0.032687098 -0.023284031 -0.0034142495 0.06805271 -0.07851667 -0.11514741 0.07888226 -0.06398918 -0.035022553 0.0039180038 0.038860388 -0.068622604 0.048678212 -0.002369144 -0.028850466 -0.10314194 -0.0115106795 -0.07519727 0.013911504 0.0016056262 0.14516559 0.06960126 0.016275225 0.055677343 0.053442474 0.012090153 -0.009179488 0.022005444 0.0010499622 -5.821474E-4 -0.04465079 -0.02566296 0.08711462 0.027759396 0.0028768256 -0.050763767 -0.0789607 0.010201063 0.035357848 0.03432552 0.065266736 0.051802237 -0.008438428 -0.064486675 -0.045310244 -0.05471417 -0.06599324 -0.070345506 0.055506438 -0.0039299796 -0.071701914 0.017885428 -0.038371794 -0.008812226 -0.010860603 -0.031641167 0.009959043 -0.007009303 0.0034782575 0.006334344 0.048894748 -0.033137023 -0.061591353 0.017465057 0.038720127 -0.14997357 0.029856179 -0.032530133 0.05901365 -0.021420011 0.026974285 -0.0032854744 0.0050980737 -0.027881846 -0.056703012 -0.14555377 0.020192295 -0.06041609 0.05139932 -0.0048109964 -0.07484392 0.043659747 -0.102724455 0.023576431 0.03990637 0.029206224 0.06504474 0.011719652 0.026963959 0.004964485 0.0894347 -0.02801432 -0.031457864 0.009446582 -0.024415093 -0.093989484 0.020975163 -0.016527405 -0.03230077 0.02913629 0.059913088 0.047577642 -0.04575789 -0.0011963267 -0.039991077 -0.09631535 -8.946641E-4 -0.06773108 0.053148534 0.036354776 -0.0075380513 -0.08856276 -0.07839811 0.031052988 0.07375982 -0.00633946 0.029670175 0.042096235 -0.054098625 0.021167818 -0.11639054 0.037333146 0.025443055 -0.05366848 -0.05299622 -0.053078305 -0.049884506 0.020402484 -0.015885836 0.052226033 -0.035994615 -0.009012213 0.07683549 -0.003306537 -0.06224291 -0.034314703 -0.044524074 0.021024847 0.0014936395 0.0726937 -0.0116254175 -0.0040658843 0.008855669 -0.04549918 -0.08692682 0.07413403 0.036708154 0.10480595 -0.04417525 0.028700484 0.01275021 -0.026599944 0.0037760213 -0.020870678 -0.015595815 -0.03534272 -0.03887365 -0.09624877 0.014460241 0.0067522177 0.009238521 0.029113619 0.091903046 0.022989694"
            },
            "0" : {
              "type" : "V"
            }
          }
        }
      }, {
        "weight" : -0.6521835,
        "instance" : {
          "type" : "simple",
          "ID" : 12,
          "classificationLabels" : [ {
            "labelType" : "StringLabel",
            "className" : "food"
          } ],
          "representations" : {
            "3" : {
              "type" : "S",
              "charArray" : "36245348#821441#3",
              "content" : "36245348#821441#3"
            },
            "2" : {
              "type" : "S",
              "charArray" : "They were dry , stale and pretty flavorless .",
              "content" : "They were dry , stale and pretty flavorless ."
            },
            "1" : {
              "type" : "DV",
              "content" : "0.32881203 0.15625425 0.20933007 0.14502783 0.08062699 -0.045742817 -0.09047556 -0.12096489 0.21104811 0.058430742 0.07223531 0.17021696 0.090373054 0.17609586 0.02519015 0.03289444 -0.005535006 0.21857806 -0.18158212 -0.1843477 -0.104789525 0.004113743 0.060105857 -0.026072618 0.08793269 -0.068159565 0.11179401 0.048361477 0.05786245 -0.028927447 -0.09001974 0.04055193 0.012490635 0.028896498 0.10353454 0.05126244 -0.12575068 0.061232544 0.027177649 0.012505666 0.016891137 -0.034892205 -0.037721932 0.011537625 -0.025697764 -0.033387415 -0.020695321 0.09451088 0.12759691 0.027026014 -0.022552872 0.022524402 0.08464784 -0.031211318 0.065344684 0.024795141 0.083686605 0.023252947 -0.0072696963 -0.012065941 0.08110824 -0.0053460062 -0.018549563 -0.02528771 0.048190594 0.02155314 -0.029247388 -0.02237374 -0.04522856 0.06238291 0.052965734 0.05209878 -0.11362596 0.042696837 -0.030512389 0.07801644 0.013696522 -0.02568969 -0.05188024 -0.039907105 -0.023442568 0.009028876 -0.040496986 -0.004358306 -0.040850516 0.10633415 0.028223723 3.3461337E-4 -0.086400725 0.08210285 -0.051343504 -0.041859962 0.014906246 0.08983107 -0.06354839 -0.006705151 0.03628341 0.042670764 -0.050923627 0.0014981253 -0.063067116 -0.08442133 -0.056286443 -0.0634743 -0.024975495 0.054280266 -0.023830641 0.003169888 0.018768383 0.04151444 0.0017616937 -0.07418562 0.13116314 -0.019884227 0.02888186 0.016380994 0.079197675 0.0056439997 -0.02656271 -0.03919107 -0.06063548 0.06828217 0.037941974 0.020508187 0.059614897 0.040668134 -0.011748015 0.0420183 -0.05245809 -0.005897594 0.0027558953 0.080074735 -0.014784493 0.021033077 0.006589209 -0.024580471 -0.008367981 -0.0038368332 -0.09822685 0.07059334 0.030661447 0.015088143 -0.055388726 0.042191934 0.017832613 0.018649198 -0.03711539 -0.05453347 0.009154382 0.017399102 -0.008811937 -0.0050568227 0.019697241 -0.050591625 0.007389236 -0.063753806 -0.021276925 -0.022352489 -0.0037222682 0.053530376 -0.014916891 -0.062005952 0.057343956 -0.00649862 -0.055659577 -0.04265665 -0.05112342 -0.022247195 0.029627886 0.017207934 -0.033266954 0.014208534 0.02337317 0.021711724 6.549379E-4 0.03790231 -0.0024119571 -0.017825376 0.004046148 -0.032153267 0.027539145 -0.016874952 0.032282684 -0.020382883 0.046346445 -0.04112024 -0.057508495 0.0021054582 -0.037054896 0.12566926 -0.037127584 -0.0058606165 -0.024369068 0.051667757 -0.021664985 0.011395787 0.069656916 -0.013516081 -0.039852098 -0.028319648 0.050120525 0.007283044 6.8614184E-4 -0.020198438 -0.04562705 0.06787277 -0.02838357 0.056417745 0.00333936 0.023402812 0.033103075 -0.029843226 0.038417734 0.007900402 -0.059031043 0.120376736 -0.040195234 0.007801622 0.060668126 0.01061497 0.002458468 0.09413366 0.02161151 0.023629645 0.082086004 -0.031668697 0.007106751 0.031558435 -0.021036437 -0.105299935 0.0014579877 0.016724816 -0.007709543 0.01717042 -0.06820943 -0.029328795 0.03555871 -0.0842715 0.046671413 0.011692741 -0.023493813 -0.03962695 -0.017775536 -0.032251395 -0.0057135457 -0.0063316734 -0.08405 0.044049032 0.045338307 0.0035440538"
            },
            "0" : {
              "type" : "V"
            }
          }
        }
      }, {
        "weight" : -0.5883757,
        "instance" : {
          "type" : "simple",
          "ID" : 13,
          "classificationLabels" : [ {
            "labelType" : "StringLabel",
            "className" : "food"
          } ],
          "representations" : {
            "3" : {
              "type" : "S",
              "charArray" : "11432442#650772#5",
              "content" : "11432442#650772#5"
            },
            "2" : {
              "type" : "S",
              "charArray" : "The fajita we tried was tasteless and burned and the mole sauce was way too sweet .",
              "content" : "The fajita we tried was tasteless and burned and the mole sauce was way too sweet ."
            },
            "1" : {
              "type" : "DV",
              "content" : "0.39621884 0.093288675 0.20443511 0.17234649 0.26964512 0.04586781 -0.2449143 -0.15790121 0.24040347 0.05054698 0.09274397 0.19214305 0.062843956 0.098125376 0.039772708 0.041987848 0.010463554 0.115268506 -0.05162938 -0.16744705 -0.11984674 0.022846326 0.038320832 0.083112806 0.030164378 0.021530602 0.050126344 0.008787316 0.00555115 -0.08192852 0.07373865 -0.021785004 -0.052078903 0.05625913 0.1375401 0.01907777 -0.018694011 -0.017275564 0.08413101 0.112751774 -0.067615956 -0.07724659 -0.0020398058 -0.016785998 0.065922365 0.03834869 -0.060932774 0.012784789 0.012537643 0.038205013 0.04214704 -0.0077873613 0.031501304 -0.050966486 -0.052487917 -0.015422344 -0.0057935365 -0.0040342845 0.015675878 0.049873587 -0.013290049 0.044871736 -0.020454234 0.0022546824 -0.0075826007 -0.0035704225 0.043493208 0.001254393 0.03560457 -0.0013880014 0.012463593 0.005985431 0.07781357 -0.045013446 -0.014144739 0.053516056 0.09065499 -0.008091111 -0.03073674 -0.0183211 -0.010066304 0.0030001248 0.08055024 0.0016667369 -0.0072820885 -0.05725707 0.0015128176 -0.06964352 -0.03565523 0.03709796 -0.036245286 -0.016755382 0.035168353 -0.04378076 -0.01011482 -0.026789794 -0.031605896 0.0053036837 -0.07801139 -0.021193206 -0.033268645 0.033502538 -0.07509467 -0.009258664 -0.0020114337 0.0026083714 0.020376062 -0.018910706 -0.019008033 0.0071134362 0.038949646 -0.0042638923 0.005346508 0.047288097 0.040039152 -0.079660915 -0.02630747 0.05429655 -0.03203869 0.0118296705 0.050344087 0.054820377 0.024327395 0.013615193 -0.08688874 0.024581345 0.053213794 0.043049287 -0.059578583 -0.0069070053 0.10830851 -0.019321349 -0.046422616 0.04246238 -0.019374797 0.003283318 0.055478 -0.027388591 -0.077862896 -0.006433669 -0.025775041 0.03964065 -0.037249893 1.9169044E-4 0.01134196 0.003267976 0.0770241 -0.018288448 -0.009360153 -0.015565833 0.09758421 -0.032057393 -0.024212273 -0.04595191 -0.010433203 -0.04305142 0.08466832 0.12647448 0.018661138 0.040264446 -0.014558436 -0.060056802 0.0031003421 0.008932094 0.06621318 -0.021779295 -0.07194232 0.02656481 -0.023883158 -0.002906288 0.0037244246 -0.0065046973 -0.026273513 -0.010308254 -0.086315565 -0.027240524 0.030188594 -0.031245736 -0.017994968 0.030588977 -0.07996577 -0.016779313 -0.012861878 0.01238787 -0.046386477 -0.052933585 0.029745618 0.065385304 -0.011835036 0.0062010307 0.036493916 0.017717417 -0.011735198 0.018374523 -0.0529631 0.03139736 -0.035871614 0.026028741 -0.019543035 -0.0734901 -0.023227807 -0.002337651 -0.047838904 0.010498084 0.011881955 0.03469509 -0.054892108 0.028913444 -0.02506056 -0.042987213 0.015422952 0.12466391 -0.017211815 0.056964405 0.07176021 0.020367932 -0.0025278837 0.023032201 0.015876416 -0.013022177 0.03069087 0.012587831 -0.0054812795 -0.06388927 -0.027806107 -0.028122209 0.094384804 0.035378154 0.019560516 -0.036785256 -0.030231463 0.06381143 0.002215205 0.054994598 0.0052783666 -0.01662496 -0.021841545 -0.012285427 3.378218E-4 -0.02373159 -0.07328084 -0.014993265 -0.023333672 -0.012179782 -0.03164555 0.024864972 -0.050027985 0.032402106 0.005416998 -0.005331417"
            },
            "0" : {
              "type" : "V"
            }
          }
        }
      }, {
        "weight" : -0.5442085,
        "instance" : {
          "type" : "simple",
          "ID" : 14,
          "classificationLabels" : [ {
            "labelType" : "StringLabel",
            "className" : "food"
          } ],
          "representations" : {
            "3" : {
              "type" : "S",
              "charArray" : "11432442#650772#6",
              "content" : "11432442#650772#6"
            },
            "2" : {
              "type" : "S",
              "charArray" : "Stay with the roasted chickens and you 'll be fine .",
              "content" : "Stay with the roasted chickens and you 'll be fine ."
            },
            "1" : {
              "type" : "DV",
              "content" : "0.3545788 0.19026981 0.09092721 0.1837532 0.20788519 0.04766728 -0.26206097 -0.041872486 0.16839696 0.089581035 0.0815396 0.08535138 0.07438199 0.13722903 -0.06774993 -0.030467242 0.11919498 0.062018275 0.039969575 -0.17654641 -0.16160901 -0.03590719 0.035333715 0.042449195 -0.10109183 0.1296236 0.0048837783 0.05554452 -0.02611624 -0.16897056 -0.040212665 0.061799113 -0.016844552 0.039231554 0.07292434 0.07313907 0.002380432 -0.017900705 0.10005693 0.19019587 -0.01600876 0.007840928 -0.021118525 0.019090818 0.09725398 0.06417103 -0.01060092 0.049036074 0.029314902 -0.0035622031 0.04552292 -0.0015560663 0.077338316 -0.061485562 -0.005873656 -0.059957724 -0.049949694 -0.062925465 -0.027342841 0.08947712 0.033923935 0.039199766 0.006828056 0.017683988 0.008979688 0.04663649 -0.059417002 -0.078890316 0.061093282 -0.005153823 0.030784577 0.07462666 -0.019504162 -0.04024937 0.14189824 0.092885084 -0.004267296 0.006414273 -0.061228275 0.051051695 -0.026703576 -0.03134641 -0.04607683 0.034508597 0.07203319 0.014231738 -0.004463008 0.0030937374 0.008882576 0.015270592 -0.021489916 0.0029540642 0.011935757 0.030307757 -0.023813771 -0.011874231 -0.030368675 0.018360464 -0.12247046 -0.007900965 0.054703813 -0.056104425 0.07949337 -0.010957945 0.038074277 0.04736232 -0.016919408 -0.0015659397 -0.027501639 -0.015972303 0.028988956 -0.08841617 0.04227154 -0.049994223 -0.03952165 0.03757959 -0.023770858 -0.04636888 0.05993511 -0.074426435 0.08219412 -0.013996599 0.013326654 0.025859166 0.09088011 0.013488052 -0.0070099616 -0.008992172 0.033814736 -0.018204482 -1.2123698E-4 0.010252456 0.081751056 0.0720011 0.039723452 0.0048758285 0.017689304 0.08208422 -0.036390606 -0.010964723 0.05940259 -0.080941565 -0.03222447 -0.020614646 0.06426808 -0.02330042 -0.05696294 -0.06164168 0.023052175 0.028172225 -0.08792389 -0.00787637 -0.048687816 1.3636048E-4 -0.011289136 -0.05448166 -0.041220244 -0.002226355 0.01248209 -0.014870025 0.04850283 -0.017665766 -0.021107936 0.0014429885 -0.009007138 0.035173986 -0.06334309 0.0497247 -0.070749134 -0.0034452942 -0.0048436318 -0.024111098 0.039755292 -0.00951007 -0.05135373 -0.0045059584 0.027785774 0.009112163 -0.0076171155 -0.0051278505 0.0383735 -0.021118343 0.06372177 -0.05950987 0.05118895 0.0015631156 -0.02411854 0.06630403 0.058660597 0.0057748 0.030243274 -0.035313603 0.05014383 -0.035864495 0.018979447 0.019233294 -0.037952535 -0.052772783 -0.0031326613 0.017829942 0.0040752967 -5.821688E-4 -0.05830615 0.006457803 0.013127716 -0.0074595083 -0.04270608 0.024000537 -0.035342783 -0.04587992 0.010707605 -0.035152923 -0.04778192 0.011794495 -0.011810672 -0.05034607 -0.023771174 1.990184E-4 0.10848461 0.016808698 0.07030475 0.029186696 -0.004982464 -0.007661267 -0.018234316 0.005891789 -7.947331E-4 0.04081629 -0.004759915 -5.4535386E-4 -0.0400748 -0.019425994 0.01934176 0.014251853 0.10113744 0.03814932 0.01885013 0.01228094 0.05573226 -0.009443515 -0.07235513 -0.030834707 -0.045780472 -0.03632857 -0.034058172 -0.045644574 -0.027710358 0.041900024 0.011166992 -0.074568786"
            },
            "0" : {
              "type" : "V"
            }
          }
        }
      }, {
        "weight" : -0.5673107,
        "instance" : {
          "type" : "simple",
          "ID" : 15,
          "classificationLabels" : [ {
            "labelType" : "StringLabel",
            "className" : "ambience"
          } ],
          "representations" : {
            "3" : {
              "type" : "S",
              "charArray" : "32944693#1193404#4",
              "content" : "32944693#1193404#4"
            },
            "2" : {
              "type" : "S",
              "charArray" : "The atmosphere is warm , comfortable , artsy and sexy .",
              "content" : "The atmosphere is warm , comfortable , artsy and sexy ."
            },
            "1" : {
              "type" : "DV",
              "content" : "0.35789797 0.082768075 0.0883755 0.18191178 -0.14507586 -0.3340619 -0.2646242 -0.044956125 0.17429596 -0.016397662 -8.774345E-4 -0.06319345 -0.043681215 -0.07668919 -0.12789531 -0.08383369 0.0013787388 -0.063750565 -0.22539851 0.0801594 -0.11434048 -0.027366383 -0.064208925 0.05019283 0.107989386 0.090299964 -0.08121705 -0.07669482 -0.013529655 -0.0026369411 0.070764355 -0.070975825 0.085775755 0.08182696 0.006490657 0.022917457 -0.018027578 0.026346214 0.13941981 -0.044906285 0.0105450945 -0.054770462 0.06439242 -0.06602526 0.029559754 -0.07962979 0.030979143 -0.045878496 0.033901293 0.07678346 0.034663416 -0.07919144 0.07797357 -0.015375282 0.063209705 -0.058446825 0.052098412 0.0043155993 -0.11139309 0.05944742 0.072506726 0.15675041 -0.039394267 -0.13239974 -0.0026532395 -0.07599973 0.037551913 -0.0013681788 -0.043741416 -0.0617499 0.025044486 0.0018315042 -0.06580241 0.05850777 -0.05261227 0.033875465 0.009613882 -0.055519655 0.036664817 0.008839571 -0.032081977 -0.056382112 -0.05701892 -0.061623238 0.021601677 -0.03578069 -0.028846825 0.0108317565 0.012855261 -0.05703779 0.02647505 0.026291102 0.024312837 0.034461863 -0.043362595 -0.010195706 0.0053807506 -0.013575016 -0.027167723 0.0113911405 0.003116631 -7.771934E-4 0.008351819 0.022177193 -0.016568514 0.018185234 0.04272164 -0.030626623 -0.02360113 0.06208516 -0.00582663 -0.08524452 -0.025850594 -0.021492539 -0.0044902465 0.09600363 0.015075007 -0.00704314 -0.06493908 0.042524394 0.008365616 0.010148367 0.0019931726 -0.0021012118 -0.0688927 -0.08767 -0.011532637 -0.007816152 -0.008245318 0.06766121 0.10848927 0.026078995 0.026631013 -0.014060474 0.053151205 0.022839773 -0.03808739 0.03521765 0.07166411 -0.020553453 0.0267761 0.023126313 -0.06685971 -0.026179085 0.034096565 -0.11489934 0.014742167 0.034963064 -0.06400423 -0.0036822532 -0.021947388 -0.022117598 -0.0011604682 -0.0037448716 7.761276E-4 -0.03466205 0.03539505 -0.027581574 0.035296734 0.010293263 -0.044544775 -0.025678948 0.005328358 -0.005320537 -0.014880481 0.0073932935 0.016618904 -0.068347976 0.05585158 0.0019227648 -0.008400387 0.0152309025 0.01815834 0.012262621 0.010931309 0.015026872 -0.05361581 -0.026761845 0.02887412 -0.042841874 -0.010384961 -0.07019493 -0.022185646 -0.017059369 0.03697768 0.010783784 -0.017370054 0.048547886 -0.017286124 0.026560945 -0.060095977 -0.02999842 -0.003132781 -0.022156598 -0.013306053 0.016687538 0.008204317 -0.003171372 -0.031112356 0.040632356 -0.0033506595 -0.039552756 -0.048886996 0.045107935 -0.083532006 0.019805247 -0.04266203 -0.03380522 -0.0050616083 0.013868832 0.02487801 0.09572177 -0.006580288 0.019439496 -0.0155915385 -0.0063088955 0.026779665 0.021195542 0.0302067 -0.07192431 -0.037739094 -0.015050377 -0.014617134 -0.009137899 -0.023629082 -0.014878801 0.028185789 0.043961745 0.022619186 0.02150053 -0.0033240223 0.058818363 -0.004491924 0.028522138 -0.009994722 -0.010728619 -0.054569665 0.0591348 0.039612666 -0.0675709 0.050805032 -0.08794406 0.020079404 0.01026811 -0.00266505 -0.05684437 0.061627295 0.03291422 -0.008682059 0.008862511"
            },
            "0" : {
              "type" : "V"
            }
          }
        }
      }, {
        "weight" : 1.1170012,
        "instance" : {
          "type" : "simple",
          "ID" : 16,
          "classificationLabels" : [ {
            "labelType" : "StringLabel",
            "className" : "price"
          }, {
            "labelType" : "StringLabel",
            "className" : "food"
          } ],
          "representations" : {
            "3" : {
              "type" : "S",
              "charArray" : "32944693#1193404#1",
              "content" : "32944693#1193404#1"
            },
            "2" : {
              "type" : "S",
              "charArray" : "The food is great ( big selection , reasonable prices ) and the drinks are really good .",
              "content" : "The food is great ( big selection , reasonable prices ) and the drinks are really good ."
            },
            "1" : {
              "type" : "DV",
              "content" : "0.40438554 0.31436163 0.062563054 0.16500962 0.08383327 -0.08939007 -0.2867099 -0.07056725 0.1260095 -0.07455366 -0.09171494 -0.102015465 0.056358956 0.24994543 -0.19948313 0.06762383 -0.015802447 0.057469808 -0.022713197 -0.17459725 -0.010583296 0.01491161 0.06653393 -0.021373622 -0.025852611 0.009744828 -0.063035995 0.08160371 0.069585726 0.0021666724 -0.06638615 -0.043607622 0.06490224 0.011924419 -0.104158565 0.11367512 0.028848771 -0.045981206 -0.1382673 0.041204356 0.037979588 -0.058531057 -0.11768263 0.018841809 0.041233134 -0.05090166 -0.07225331 0.07098991 0.02933306 0.058083907 0.04796178 -0.05530161 0.041623864 -0.037675492 -0.02645953 -0.06450624 0.011608205 0.070969485 -6.289849E-4 -0.048341226 0.026922168 0.0101222815 0.053160425 0.0742101 -0.13819022 -0.04860286 -0.042461775 -0.011850853 -0.032830548 0.033453714 0.08193238 -0.0035289403 0.017841313 0.015646325 0.0062457644 -0.021537915 -0.022152362 0.069520175 -0.001189442 -0.04441296 -0.019454211 -0.018813353 0.06875793 0.009865416 -0.017199054 0.024986811 0.060689516 0.025479207 0.020128146 -0.005363217 0.018010713 -0.11760325 0.08404685 0.05785932 -0.042517703 -5.0841225E-4 0.060002867 -0.01848016 -0.026255576 -0.048011832 -0.003286605 0.034134004 -0.042784143 -0.03024667 -0.03768092 0.06136343 8.97992E-4 -0.025651125 -0.043337468 0.12495687 -0.020890685 0.009823875 -0.026126835 -0.040715944 -0.020014282 -0.098050654 0.008484489 -0.026193189 0.015611654 -0.053636886 -0.007747253 -0.050091773 5.9201533E-4 -0.048966996 -0.016276514 -0.006416047 -0.041371074 0.032842606 0.0043691834 -0.014821278 -0.039143275 -0.0073112845 0.052505102 0.0409818 -0.0075644 -0.04952236 0.01405061 -0.012388747 0.05205243 0.018675787 0.010646476 0.00300378 -0.080529295 -0.02841348 0.00444489 -0.033133026 -0.064677164 -0.02790996 -0.049270455 -0.0062874076 0.02872421 0.018726973 -0.04014582 -0.062322725 0.089355 -0.095180035 -0.003766959 0.0030126693 0.018373339 -0.0020749697 0.0032258725 -0.010686357 0.003833863 0.069305785 0.04058378 0.03042798 0.014596921 -0.005858899 -0.002396814 0.06594675 -0.06223808 -0.026051288 -0.005331193 -0.0084213065 -0.01323505 -0.026774453 -0.0032838923 0.021474054 -0.045873582 -0.051848587 -0.017074885 -1.0575458E-4 -0.04081172 -0.021422831 -0.012657976 -0.062351026 -0.05005897 0.010996232 0.019962927 0.021988627 -9.990631E-4 0.017393872 0.038044773 0.013639303 0.01484507 -0.04121084 -0.04126005 -0.016519332 -0.04012152 0.01613562 -7.617657E-4 0.021659194 -0.04841286 -0.03660757 -0.024751585 0.007883478 -0.0011234401 0.0061374484 0.007592093 -0.014245606 -0.010024162 0.031092184 9.42059E-4 -0.029433034 -0.026965903 -0.006875856 0.003112806 0.008659579 0.03969501 -0.025618112 -0.008359321 0.023362132 0.0071871025 -0.018708905 -0.023356618 0.0071845325 -0.04903094 0.013779106 0.06302231 -0.027759407 -0.025022468 0.016585652 -0.02034191 0.014491066 -0.043310445 -0.0018304888 0.014191991 0.04124964 -0.09239293 0.017091123 0.017703103 0.021556305 0.01421253 -9.875025E-5 -0.04017479 0.03869316 0.021554489 0.049267802 0.033398975 0.020870978"
            },
            "0" : {
              "type" : "V"
            }
          }
        }
      }, {
        "weight" : -0.583652,
        "instance" : {
          "type" : "simple",
          "ID" : 17,
          "classificationLabels" : [ {
            "labelType" : "StringLabel",
            "className" : "food"
          } ],
          "representations" : {
            "3" : {
              "type" : "S",
              "charArray" : "35693214#539116#1",
              "content" : "35693214#539116#1"
            },
            "2" : {
              "type" : "S",
              "charArray" : "The steak melted in my mouth .",
              "content" : "The steak melted in my mouth ."
            },
            "1" : {
              "type" : "DV",
              "content" : "0.30565616 -0.1084965 0.15939303 0.11025237 0.26737174 0.15846315 -0.079709254 -0.04399335 0.078428656 0.0772329 0.11952649 0.20925014 0.025448583 0.004895014 -0.008165644 0.003522185 0.12917931 0.013005234 0.1065986 -0.14989202 -0.07216551 0.009113611 -0.0021994556 0.02189684 -0.029174488 0.09895944 -0.15264036 0.008634216 -0.060470726 -0.18856095 0.10419523 0.0407801 -0.09879212 0.05745929 0.024079038 0.12145975 -0.055827662 0.11284744 0.016337508 0.11447111 0.030691903 -0.049650546 -0.007852073 -0.005063112 -0.015204414 -0.001152857 -0.040709138 -0.03043834 -0.039245687 0.0058649005 0.02402351 0.023704091 0.026025208 0.11340683 -0.037095573 -0.022320604 9.640373E-4 -0.03745292 -0.011222473 0.0059914505 -0.045175973 -0.009846237 0.0336806 -0.02305336 -0.0023118055 -0.00987809 0.012326671 -0.010956788 0.06655829 -0.06937483 0.049759857 0.0034461874 -0.004593192 -0.039293844 -0.06620969 0.09153389 0.0014866575 0.009298341 0.07130593 -0.04301563 0.105864786 0.02669972 0.0822741 -0.021523803 0.042443838 -0.08903197 -0.08289696 0.0025511223 0.03223841 -0.015573716 -0.0034602936 -0.045049418 -0.04364288 -0.049247276 -0.052721728 0.060097095 0.05887506 -0.018662864 0.031370647 -0.019288486 -0.045584954 -0.005429225 -0.0807652 0.05578601 0.04573921 -0.0018780011 0.060625676 0.004770746 -0.015637165 0.021100428 0.039622135 -0.003185741 0.061485752 0.06801271 0.11927286 -0.0055451086 -0.043567963 0.039385077 0.122450575 0.07110699 -0.023834135 0.053608365 -0.03445002 0.013649941 -0.0035885512 -0.015061394 -0.0028354363 0.10307159 0.005152483 0.021169217 -0.07053457 0.053912774 0.036639433 0.036059998 0.07598393 0.012570194 -0.069502585 -0.0029657944 -0.083649516 0.01795887 -0.027030086 0.034270786 0.079461835 -0.023165537 0.048167467 -0.054374706 -0.015088974 -0.10009688 -0.035881452 -0.027473234 -0.033552323 0.04160805 0.02057877 0.0027554655 -0.008450601 0.02230773 0.015665537 0.02190277 -0.0038735147 -0.0043425434 -0.001198296 0.003899561 -0.0213636 0.0015270694 -0.06301378 -0.07211142 -0.011320191 0.031307153 0.039942574 0.12667836 0.055262245 -0.006068083 -0.061627902 -0.036273647 0.028091732 -0.030799536 0.0062797777 0.037854325 0.051998742 -0.09844638 -0.0025679078 0.004296999 0.055869665 -0.05664045 0.0051260153 0.013966455 -0.08049153 -0.00664413 -0.087937 0.068283305 -0.019359445 -0.031337216 -0.063490786 -0.0073649604 0.044696312 0.025618654 0.049717274 0.007217564 0.01974513 -0.01137271 -0.06745363 -0.017451907 -0.015117657 -0.06373389 0.019148367 0.02644995 -0.015204561 0.057096303 0.038871896 0.025684161 0.06411263 -3.5239957E-4 0.06609436 0.08721188 0.06098481 0.12288982 -0.07491468 -0.02656802 0.074155815 -0.015662486 -0.022345278 0.023404088 0.058482513 -0.05484898 0.059330616 0.07499948 0.04798732 0.076197825 0.020302797 0.035444856 -0.0460583 -0.09031447 -0.03805138 0.04656889 -0.06201372 -0.023392417 -0.021960974 -0.002453885 0.062643364 -0.036588795 0.0025132918 0.051002312 0.005112692 -0.023855684 -0.12114253 -0.009963689 0.019810652 -0.031447466 -0.013254217 -0.0035301242"
            },
            "0" : {
              "type" : "V"
            }
          }
        }
      }, {
        "weight" : -0.6502557,
        "instance" : {
          "type" : "simple",
          "ID" : 18,
          "classificationLabels" : [ {
            "labelType" : "StringLabel",
            "className" : "service"
          } ],
          "representations" : {
            "3" : {
              "type" : "S",
              "charArray" : "32950007#1320096#3",
              "content" : "32950007#1320096#3"
            },
            "2" : {
              "type" : "S",
              "charArray" : "The food did take a few extra minutes to come , but the cute waiters ' jokes and friendliness made up for it .",
              "content" : "The food did take a few extra minutes to come , but the cute waiters ' jokes and friendliness made up for it ."
            },
            "1" : {
              "type" : "DV",
              "content" : "0.5354264 0.31889018 0.082956426 -0.085847996 0.1053995 0.034386914 0.024525175 -0.119088985 0.06296712 -0.042579778 -0.06733694 -0.06103577 -0.016732685 -0.006466774 -0.08938301 0.013350595 0.017215166 -0.05941219 -0.026912682 -0.071648374 0.054847844 -0.01011954 -0.019257953 0.033595987 0.0095397765 0.045067616 -0.120324135 0.042030253 -0.0060106316 0.010973004 0.015049951 -0.009959844 0.1011469 0.05369558 -0.031481482 -9.653766E-4 0.062388822 -0.007388999 -0.07363358 -0.057702433 -0.037003767 0.121519096 -0.01314781 -0.0037380508 -0.059846442 0.07533068 -0.0912324 0.11461322 -0.11128254 -0.058641125 -0.119501375 -0.038152903 0.07096559 -0.0461796 0.080426835 -0.07766618 0.0343363 -0.106203414 0.0251539 -0.048698675 0.014875982 -0.07281545 -0.03274392 -0.07047035 -0.025062647 -0.0022045206 0.01601617 -0.0065343673 -0.024352245 0.073378265 -0.03711696 -0.029774584 0.06679173 0.02248865 -0.080687664 0.05147212 0.06953451 -0.017569039 0.032854415 0.03337698 -0.03864159 -0.023334766 0.056353305 3.2107678E-4 -0.10990409 -0.06586784 -0.040977623 0.08340192 0.017101016 -0.006882956 0.0166541 -0.03848914 -0.04389048 -0.05396927 -0.03325406 -0.039413285 -0.034711394 0.004903408 4.0574852E-4 -0.0026404436 -0.03198984 0.027603555 0.047628812 -0.008158321 0.007773979 -0.03200233 -0.011135068 0.01946797 -0.004226125 0.010747425 0.053119108 0.040707957 0.047755133 -7.9010066E-4 -0.07846415 -0.023737151 0.0018500965 -0.026142197 -0.062845305 -0.031410255 0.017535867 -0.023727536 0.032630462 -0.012768132 -0.023747811 0.051311087 0.024884926 -0.042938784 -0.038987163 -0.023756359 0.027281955 0.04436798 0.073826365 0.05285234 0.07145424 -0.04511332 0.11116181 -0.057584193 0.02002432 -0.028889846 0.0023841136 0.0072826613 -0.12133877 0.098868035 0.05591449 -0.064198226 0.017314054 -0.028089687 0.007892057 0.018367978 0.006063122 -0.043042656 0.029537529 0.02948133 0.031164285 0.036083072 -0.017002651 0.010914544 -0.10442093 0.048818186 0.060144812 0.0049100383 0.00194185 -0.026835414 -0.023555283 -0.071812324 -0.0069637075 0.092305295 0.028076727 0.050579105 -0.06111819 -0.05311266 -0.042279486 0.11044923 0.006957918 -0.045401838 0.11345853 0.003503773 0.025253465 -0.0010784783 0.010927361 0.012792589 0.008100289 0.06723181 -0.024648173 0.070133656 0.06607509 -0.023732452 -0.031483155 -0.026693467 -0.01587166 0.03945638 0.011653742 0.047791183 -0.029740542 0.033210076 0.04641686 -5.781591E-5 0.027593939 0.020998664 -0.012701927 -0.0065432456 -0.0027117264 0.048903942 0.055702303 3.5864647E-4 -0.044473853 1.5958452E-4 -0.027964424 0.017607296 -0.003789906 -0.008963976 0.033314686 0.011696719 0.056085754 -0.0244789 -0.016826876 0.07565431 0.024600191 0.11843888 -0.004008845 -0.016993597 0.08245123 -0.009642224 0.093781866 0.119082466 0.010489015 -0.015313648 -0.011704495 0.029890766 0.031815138 0.040539782 0.010880503 0.008099072 -0.030648526 -0.011969518 0.05636391 0.026795777 -0.029781649 0.027606646 0.023951171 -0.022959713 0.03005515 0.0053421305 0.03739882 -0.04736809 -0.003683576 -0.004342239 0.033414733 -0.031708308"
            },
            "0" : {
              "type" : "V"
            }
          }
        }
      }, {
        "weight" : 0.9776622,
        "instance" : {
          "type" : "simple",
          "ID" : 19,
          "classificationLabels" : [ {
            "labelType" : "StringLabel",
            "className" : "price"
          } ],
          "representations" : {
            "3" : {
              "type" : "S",
              "charArray" : "35938288#666236#2",
              "content" : "35938288#666236#2"
            },
            "2" : {
              "type" : "S",
              "charArray" : "Most importantly , it is reasonably priced .",
              "content" : "Most importantly , it is reasonably priced ."
            },
            "1" : {
              "type" : "DV",
              "content" : "0.36716816 0.12848268 0.016164053 0.1090353 -0.083304435 -0.20451023 -0.25630215 -0.07822495 0.18222693 -0.18816912 -0.09013301 0.041070256 0.19577448 0.09052225 -0.05935885 0.07020975 -0.083825365 0.024209434 -0.11245551 -0.03938943 -0.07070713 0.07215735 -0.0025248467 0.0017054975 0.08743962 -0.05305711 -0.020240568 0.044835307 0.10464153 -0.104751155 -0.06918197 -0.0092681665 -0.0046559325 0.03622399 0.020898655 -0.064736605 0.0036298512 -0.07216315 0.039421234 0.05204369 0.029752577 0.0069758603 -0.078548804 0.0611144 0.044787746 -0.024172602 -0.09387521 -0.041777696 0.10024728 0.05624534 0.015904998 -0.07418311 -0.0131297475 0.01080056 -0.054916173 -0.016149435 -0.034084745 0.09805752 0.07233188 -0.034420107 0.04235568 0.05879175 -0.018104052 -0.0208294 -0.036738697 -0.08208519 -0.01575269 0.025555098 -0.052177817 -0.063753136 0.013202069 -0.06025378 -0.060894664 -0.10389961 0.07106828 -0.066504955 -0.1107583 0.009953351 0.037534434 0.1321329 0.06383899 0.09385739 -0.05822918 -0.01151039 0.005577569 0.04048998 0.037338763 -0.018733252 -0.03319417 -0.045886002 -0.08650311 -0.033418473 -0.023555256 0.09042975 0.013728903 0.041606568 0.058321454 0.06731881 0.025898775 -0.003980515 0.0680222 -0.040176716 -7.813821E-4 -0.0551572 -0.07092523 0.030524584 0.06391562 0.003265785 0.033471283 0.057459813 -0.055368323 0.03686403 0.0074393335 -0.013573629 0.024726782 -0.04725452 0.016428223 -0.014552112 0.05086873 0.038450632 -0.021697246 -0.020889347 0.050630752 0.048939712 0.052575666 0.067939416 0.02240211 0.0358218 0.022822019 -0.021008013 -0.016961543 0.069545224 -0.04682748 -0.054928437 0.045546316 -0.012402534 -0.05080107 -0.06369285 0.03784311 -0.0037756078 0.028898515 0.018215995 0.035355337 0.029539892 -0.0072524594 0.008686057 -0.08679633 0.015957868 -0.05859374 0.11477404 -0.054436624 -0.038964745 -0.046801113 -0.014969171 0.05337868 0.023765946 0.064284235 -0.014231008 -0.024771754 -0.051367465 0.06877448 0.014288555 -0.020894617 -0.034002814 0.04796284 -0.0012917097 0.019503646 0.034779515 -0.05391735 0.041102834 0.025531037 0.037630998 -0.028845992 0.060652517 0.0034740414 -0.023603335 0.048476014 0.018554118 -0.026732706 -0.024518274 0.08149981 0.015088611 -0.023444928 -0.09437335 0.011276524 -0.08124022 0.04233684 -0.023561206 0.01219729 -0.004568231 -0.019269258 -0.027394377 0.027640233 -0.030429797 -0.030087383 0.017076658 -0.008775738 -0.02732726 -0.042804364 -0.009809764 0.0479102 0.022836152 0.026693715 0.054790676 -0.014236881 -0.088716656 -0.056232367 -0.014467419 0.06543141 0.058173947 -0.12617776 -0.012274423 -0.017557155 0.041742064 -0.1076753 -0.007118596 -0.037641823 -0.02501954 -0.018598143 0.02344713 0.0461588 -0.012151492 -0.057221267 -0.03313878 0.074861296 0.06759564 0.013697905 0.10584171 0.026026266 0.0032107215 0.06724726 0.08062997 -0.02121073 0.03750806 -0.04895844 0.028062847 -0.016939567 0.030347893 -0.016816644 -0.027103739 -0.023289395 -0.04867632 0.032839566 -0.012972067 0.09301648 -0.051523063 0.017846737 0.016173897 0.007971579 0.04082453"
            },
            "0" : {
              "type" : "V"
            }
          }
        }
      }, {
        "weight" : -0.75443923,
        "instance" : {
          "type" : "simple",
          "ID" : 20,
          "classificationLabels" : [ {
            "labelType" : "StringLabel",
            "className" : "ambience"
          }, {
            "labelType" : "StringLabel",
            "className" : "food"
          } ],
          "representations" : {
            "3" : {
              "type" : "S",
              "charArray" : "11350660#564640#1",
              "content" : "11350660#564640#1"
            },
            "2" : {
              "type" : "S",
              "charArray" : "The selection of food is excellent ( I 'm not used to having much choice at restaurants ) , and the atmosphere is great .",
              "content" : "The selection of food is excellent ( I 'm not used to having much choice at restaurants ) , and the atmosphere is great ."
            },
            "1" : {
              "type" : "DV",
              "content" : "0.42919934 0.37546578 0.03122003 0.118401095 0.09456714 -0.09433085 -0.2633308 -0.10615023 0.16954854 -0.03573408 -0.051485747 -0.11729284 0.009245538 0.21185125 -0.14071079 0.03385185 -0.036670454 -0.04043664 0.03426379 -0.17844374 -0.07679087 -0.0082152225 -8.4121525E-4 -0.089050665 -0.065379836 0.09354017 -0.044467602 0.027840879 0.11260561 0.05171814 -0.07951249 0.042405404 -0.06728196 0.028443776 -0.058565114 0.08969587 0.072621375 0.057014197 -0.10095478 -0.042953823 -0.030654632 -0.052430395 -0.09217122 -0.0014400842 -0.041614834 -0.06407025 0.0029463945 0.07517539 0.036439933 0.08946702 0.017091144 -0.012184148 -0.012127778 -0.02696776 0.020787803 -0.054937 0.025677942 -0.05207737 -0.0014217588 -0.027493322 0.058510184 0.003490942 0.072229244 0.041635305 -0.080795966 -0.06792118 -0.017258577 0.018607931 -0.005788819 0.04892433 0.082998276 0.039958693 -0.023484834 0.014072287 -0.009806922 0.009004404 -0.061365563 0.06332014 -0.012263279 0.024283044 -0.024746394 -0.027944326 0.019138003 -0.016259238 8.930492E-5 -0.078887574 -0.025543155 -0.03708105 0.06582867 -0.012165422 -0.03146263 -0.022405194 0.064210534 -0.0791747 -0.06536402 -0.06410418 0.030966902 -0.03980498 -0.032905772 -0.04534043 0.046633128 -0.014050093 -0.061252054 -0.047307834 -0.045640353 0.054657865 0.013050425 0.04318184 -0.05089399 0.11709691 -0.022099735 -0.02553602 0.027032949 -0.006857765 -0.0019142211 -0.011365631 -0.020272898 -0.009555789 0.0010113579 -0.03955161 -0.04901509 -0.06684007 -0.052971695 -0.014348224 -0.045746535 -0.020921126 -0.031309627 -0.0021759046 0.012503293 -0.0029341988 -0.0015621249 0.04729121 -0.015572937 0.0065654293 -0.022096476 -0.07598296 -0.017484741 0.07016559 0.0025263662 0.022390861 -0.026375806 -0.043103095 -0.0609438 -0.06630537 0.0070937052 -0.009906394 -0.05903351 0.019213429 -0.046813816 0.053090848 0.021725465 -0.06631042 0.014725943 -0.059113644 0.08876823 -0.09654019 -0.052951023 0.006573761 -0.004938198 0.015721213 -0.028916616 -0.029607376 0.005113492 0.018735424 0.080432646 0.018187834 -0.02819299 0.045555282 0.0033589911 -0.018582234 -0.04988539 0.024950031 -0.010338535 -0.07431197 -0.016360728 -0.001042349 -0.0546273 0.01056316 -0.01770255 -0.06871168 -0.02877178 0.014453392 -0.022274774 -0.040995404 0.029330378 0.014526231 -0.0019076532 0.0054909415 0.012846618 0.024232652 -0.018256137 0.0018345434 0.020159336 0.0018263271 0.059387278 -0.04432459 -0.004844056 -0.028274344 -0.044307232 -0.0038347982 -0.0370591 0.01309637 -0.043251604 0.025668284 -0.082414545 -0.01486968 0.022604791 0.0013715575 0.028472435 -0.032271344 0.02504604 0.028248897 -0.017027793 0.027330255 0.008774579 0.017513132 -0.020431584 0.0074441 5.853572E-4 -0.012253297 -0.04498518 -0.020885179 -0.004643519 -0.031391263 -0.04058334 -0.014464739 -0.0061828163 -0.0029450543 0.012208579 -0.019876877 0.013238448 0.041354734 -0.038553562 0.032850564 0.02631524 -0.030677827 0.0054400344 0.024293581 -0.018238273 0.007848087 0.022710169 0.034071915 0.029951096 0.013441017 -0.03588278 -8.9921703E-4 0.046583362 0.05311697 0.030406928 0.039513405"
            },
            "0" : {
              "type" : "V"
            }
          }
        }
      }, {
        "weight" : -0.50653523,
        "instance" : {
          "type" : "simple",
          "ID" : 21,
          "classificationLabels" : [ {
            "labelType" : "StringLabel",
            "className" : "food"
          }, {
            "labelType" : "StringLabel",
            "className" : "service"
          } ],
          "representations" : {
            "3" : {
              "type" : "S",
              "charArray" : "33085939#758010#0",
              "content" : "33085939#758010#0"
            },
            "2" : {
              "type" : "S",
              "charArray" : "While there 's a decent menu , it should n't take ten minutes to get your drinks and 45 for a dessert pizza .",
              "content" : "While there 's a decent menu , it should n't take ten minutes to get your drinks and 45 for a dessert pizza ."
            },
            "1" : {
              "type" : "DV",
              "content" : "0.4741389 0.3037013 0.122506335 0.11337146 0.22128765 0.1116465 -0.12380148 -0.106736064 0.15871635 -0.040585082 -0.05356585 -0.0092496285 0.10302146 0.19603123 -0.10698484 0.06523473 -0.03963485 0.015825007 -0.017680973 -0.17550085 -0.13428989 -0.0036303971 -0.06651904 0.07135005 0.011240519 0.02315484 -0.07526701 0.010291961 0.113146365 0.04584112 -0.015355495 -0.042730905 -0.013551173 0.032633465 -0.0049774777 0.09155413 0.05556622 0.042672385 -0.049788725 0.040448852 -0.0527077 -0.03970475 0.06052075 0.054780886 0.01674579 0.037593234 -0.13309358 0.07954275 -0.031980686 0.039137054 -0.04835183 -0.07426196 0.01808201 -0.021571882 0.0125648985 -0.051964886 0.02307104 -0.10008006 0.04318247 -0.043838974 0.008637271 0.0038105664 0.00411609 -0.0088350335 -0.02458718 -0.046339527 -0.01398967 0.029351052 -0.082643226 0.07550577 -0.014829689 -0.06296878 -0.023644634 -0.03714337 -0.07468604 0.007111674 0.0031944504 0.10057332 0.026579846 0.05954558 -0.018676423 -0.03211903 0.012340297 -0.05522206 0.020730285 -0.029917471 0.026893644 0.042369857 -0.012500313 0.02731689 -0.034895424 -0.053160127 0.031115063 -0.02978547 0.030848458 0.03341966 0.018502815 -0.03304328 -0.10713815 0.033323158 -0.010119499 -0.05320902 -0.060230155 0.016162807 -0.013949235 0.051182255 0.0017643258 0.059104174 0.010817402 0.08982501 0.018784085 0.0646651 -0.048353024 -0.030013999 -0.02267879 -0.07155295 -0.03190025 -0.06535722 0.044195294 -0.04946006 0.03800973 -0.08023023 0.05939143 0.051953252 -0.07807874 0.011057997 -0.04631148 0.028957004 0.0926369 -0.043285105 -0.013255156 0.042977713 0.01142193 0.02726319 0.026163194 -4.926111E-4 0.03836762 -0.013030927 -0.09459522 -3.2451242E-4 0.002955886 0.018904373 -0.04608598 0.009376107 0.0898705 -0.016918236 -0.016391827 0.013125627 -0.019412454 0.005302467 -0.020733071 -0.078448586 -0.07034692 -0.06221132 0.04474098 -0.08097759 0.01936366 0.022971716 -0.036760665 0.0031061622 0.07138429 -0.052276812 -0.013055555 -0.012499275 0.007203593 -0.018284453 -0.027901536 0.049841646 0.01010332 0.06742809 -0.038545825 -0.09970099 0.011929225 0.054086696 -0.024477711 -0.0066274237 -0.045824874 0.032319427 -0.009158837 -0.029530618 0.011043665 0.021649353 -0.02946926 0.045875944 0.01135197 0.01328467 -2.5483334E-4 0.024648696 -0.013614281 -0.021261461 -0.034622267 0.021419775 -0.016002739 0.020839386 -0.02936892 0.017170466 -0.02052092 -0.013466421 -0.051526677 0.060500786 1.3997933E-4 0.02152229 0.013336282 0.0011194008 -0.0053406944 0.04767995 0.0012488436 0.010127211 -0.01650592 -4.688894E-4 -0.025375066 -0.005488555 0.010349036 -0.04451311 0.0037777312 -0.02333649 -0.035020724 0.041017223 0.011729569 -0.0048846495 0.014377628 -0.0052011106 0.0140937315 -0.031208873 -0.02659636 -0.014956137 0.024475759 -0.043461613 0.034565717 -0.04848069 -0.0149901295 0.012306616 0.06304081 -0.026412163 -0.02404998 0.04563402 0.07601572 0.029899443 -0.05772454 -0.0141809 0.00944691 0.0032792985 0.027578747 -0.015877834 -0.02033383 0.039525706 0.06951635 0.070640475 -0.014676894 1.9665716E-4"
            },
            "0" : {
              "type" : "V"
            }
          }
        }
      }, {
        "weight" : 1.1561261,
        "instance" : {
          "type" : "simple",
          "ID" : 22,
          "classificationLabels" : [ {
            "labelType" : "StringLabel",
            "className" : "price"
          }, {
            "labelType" : "StringLabel",
            "className" : "food"
          } ],
          "representations" : {
            "3" : {
              "type" : "S",
              "charArray" : "35393632#1591698#7",
              "content" : "35393632#1591698#7"
            },
            "2" : {
              "type" : "S",
              "charArray" : "Only suggestion is that you skip the dessert , it was overpriced and fell short on taste .",
              "content" : "Only suggestion is that you skip the dessert , it was overpriced and fell short on taste ."
            },
            "1" : {
              "type" : "DV",
              "content" : "0.5517283 0.08534393 0.0970786 2.8220084E-4 0.11924768 0.0011900668 -0.13993847 0.0066414294 0.09723931 -0.05034116 0.03226102 0.21970153 0.11085169 0.09799535 -0.05269307 0.08392237 -0.0067875627 -0.018675199 0.06449166 -0.1324798 -0.012381984 -0.0014472724 0.044068012 0.0028876357 0.10519772 0.041239955 -0.0038215374 0.048035033 0.08002911 -0.026769217 -0.0487619 -0.037992157 -0.0363907 -0.078358464 -9.0954313E-4 0.04153071 -0.053649534 0.027120741 -0.06307165 4.0385424E-4 0.037148014 -0.073225416 -0.023950098 0.052194167 -0.08346552 0.035453293 -0.053716656 0.04045462 -0.030749438 -0.070508756 0.07121865 -0.057154533 0.047484837 0.009981676 -0.02468802 -0.055064913 -0.021184122 -0.011861187 0.07036606 0.009337644 -0.007647707 0.1116518 -0.0094246045 0.041963186 -0.08911484 -0.0045994716 0.07592781 -0.01597283 0.0038048485 0.053713575 -0.028068496 0.040057916 -0.04337754 0.018043905 -0.06684225 0.0076447143 -0.003874539 -0.044522174 0.03873691 0.07646202 0.036151174 -0.015677888 -0.017880157 0.025600897 -0.01421893 -0.011493331 0.021379933 -0.014574099 -0.03515244 -0.008522077 0.0028563756 -0.10995744 -0.015206613 -0.0026886105 0.0057570282 0.04626619 0.11384849 -0.03196383 -0.007497695 -0.020190986 -0.06564463 -0.10408256 0.05923863 -0.007920563 -0.02331409 -0.008972719 0.031923555 -0.035801787 -0.06030045 0.051995557 0.016639335 -0.06164438 0.073142335 0.014650965 0.015608696 0.036795773 0.018650642 -0.0134188775 0.11643955 0.04594528 -0.035626248 -0.06570139 0.038532507 0.04262854 0.015286511 0.02019548 0.04469062 0.1340905 -0.033277553 -0.08373857 0.046827074 -0.0113524655 -0.036492657 -0.057189487 0.08509052 -0.038679328 0.040879022 0.036473263 -0.0826177 -0.02070402 -0.011612714 -0.05578535 -0.029405035 0.037350718 -0.0120244315 0.004814878 -0.009717613 -0.009277976 0.018061426 0.057288 0.02486563 -0.12655373 0.010637865 0.017314974 0.08943297 -0.044654883 0.07519427 0.07980639 0.0948481 -0.019030178 -0.0059087332 -0.11866281 0.0043068593 -0.041559923 -0.00397335 -0.108816184 -0.036522385 0.04939409 -0.06053295 -0.015884971 0.012441376 -0.008171013 -0.038561206 -0.007658266 0.021077203 -0.03658726 3.958138E-4 -0.03323646 -0.038354557 0.011494336 -0.07277793 -0.018780624 0.013994754 0.026751326 0.07488913 -0.0513311 -0.007868386 0.01204593 0.0124083385 0.0063274116 -0.025992062 -0.00653001 0.024763545 -0.04601553 0.08242541 -0.004777171 -0.037106067 -0.027173795 -0.026886923 -0.019830208 0.06298098 0.017349016 0.021421779 0.040590875 0.036284786 0.013373513 -9.901361E-4 0.016776752 0.057839155 0.05042782 -0.0615175 -0.026192028 -0.03504983 0.11964192 -0.053736914 -0.02750856 -0.044296823 0.042724878 0.08927978 -0.030822588 0.015898138 -0.024314072 0.031780448 -0.042915277 -0.015451324 0.0045715217 -0.044612378 0.0031848114 -0.12442598 0.1218257 -0.0012433418 0.01560016 0.010128238 0.041364748 0.0013617624 0.047781724 -0.020895688 0.013281033 -0.038069315 -0.028114995 -0.015907457 -0.055204403 0.049243696 0.0399395 0.0397828 0.015272109 -2.06454E-4 0.027747028 0.023819737 -0.035350155"
            },
            "0" : {
              "type" : "V"
            }
          }
        }
      }, {
        "weight" : -0.54628193,
        "instance" : {
          "type" : "simple",
          "ID" : 23,
          "classificationLabels" : [ {
            "labelType" : "StringLabel",
            "className" : "food"
          } ],
          "representations" : {
            "3" : {
              "type" : "S",
              "charArray" : "15087705#871249#1",
              "content" : "15087705#871249#1"
            },
            "2" : {
              "type" : "S",
              "charArray" : "Food was decent , but not great .",
              "content" : "Food was decent , but not great ."
            },
            "1" : {
              "type" : "DV",
              "content" : "0.3604233 0.34828246 0.039582115 0.08882189 0.028741967 -0.13000444 -0.23291779 -0.11618142 0.24893011 -0.003592408 -0.052226957 -0.13100936 0.08957112 0.2268185 -0.13861434 0.103863336 -0.08356855 0.05834886 -0.008177711 -0.2159581 -0.07516898 0.029640093 0.059817884 -0.04274789 -0.08737625 0.023882288 -0.043133 0.05651983 0.07117085 0.03859251 -0.107796386 0.053645715 0.0013067619 0.104922295 -0.03197205 0.1652361 -0.004492996 0.0041643074 -0.080966085 0.014719023 0.07616883 -0.033025436 -0.119597904 -0.0032243219 -0.0030840328 -0.062623784 -0.0016238361 0.0774053 0.03490142 0.11137412 0.009564559 -0.067187935 0.047326133 -0.049537238 0.009184466 -0.07174828 0.075254776 -0.046733405 0.0804735 -0.012533519 0.058936954 0.043593865 0.045540705 0.08588874 -0.08971805 -0.056695204 -0.025809642 -0.047074914 -0.054074742 0.026251243 0.07766956 0.029115997 -0.020090535 0.018840773 0.041542124 -0.0050056474 -0.060807295 0.070969775 -0.003249149 0.0066306936 -0.022204824 -0.0029562935 0.007078466 -0.026302403 -0.025250342 0.0012409172 0.03648004 0.04628043 0.043213487 -0.034465037 0.024201367 -0.04482169 0.07836681 6.597362E-4 -0.052945957 -0.020509068 0.02022208 -0.003616684 -0.052856535 -0.0016050785 -0.0054844804 -0.06370905 -0.025855783 -0.0075193807 -0.029088158 0.023711532 0.02950945 0.043892615 0.008680178 0.110777624 -0.024505101 -0.011280981 0.02734371 -0.052578747 -0.028738733 -0.04988799 -0.03662453 -0.026757997 0.051920123 0.0012986579 0.005139392 -0.040224478 -0.012628661 -0.007918777 -0.02259962 -0.0013794348 -0.031955983 0.022285169 0.004937444 -0.016896551 -0.021914085 0.037884165 0.052066274 0.025500508 -0.029845987 -0.051559683 -0.0017597356 0.020146001 -0.026398383 0.043854296 -0.003219716 -0.04788354 -0.06510756 -0.020809103 0.02148716 -0.016598014 -0.053234376 -0.016074717 -0.037697062 0.03089248 -0.01903339 -0.03195127 -0.06910797 -0.066202424 0.07561972 -0.07357041 -0.01718595 0.0072476733 -3.6985937E-5 0.033244435 0.008201158 -0.07042332 0.022526398 0.06286625 0.042525254 -0.01931906 -0.0054412293 0.01463257 0.016989032 0.0040295753 -0.03162234 -0.05850281 -0.0046661394 0.014839922 -0.023062153 0.040079843 -0.06475146 -0.00907688 -0.022860749 -0.015740376 0.029305583 0.03178462 -0.030246358 -0.066552415 -0.008261523 0.008176001 8.505529E-4 0.016507871 0.018753422 8.609774E-5 -0.028718522 -0.021221276 0.05641369 0.020392807 0.060767833 0.020438619 -0.040596083 -0.050936688 -0.06484891 0.0060455455 -0.014907082 0.057984922 -0.028558308 -0.017516831 -0.038922958 0.011665833 -0.04341874 0.009380263 0.0124712605 -0.021089092 -0.0074748104 -0.021679578 0.032935128 -0.03673656 -0.019223703 0.054184865 -0.035130322 0.014342355 0.035787184 -0.015537472 0.005089194 -0.009756426 -0.024079286 -0.0084565235 -0.010668 -0.016118476 -0.047450878 0.012757889 0.050347682 -0.0029910046 -0.061380215 0.03316669 0.013569266 0.05048501 -0.02877547 0.031505592 0.026556384 0.011167237 -0.042938367 -7.376575E-5 -0.027693573 0.050244633 0.023320109 -0.030034907 -0.0048151664 0.023404703 0.041242767 0.06969933 0.017934248 0.028643029"
            },
            "0" : {
              "type" : "V"
            }
          }
        }
      }, {
        "weight" : -0.5366487,
        "instance" : {
          "type" : "simple",
          "ID" : 24,
          "classificationLabels" : [ {
            "labelType" : "StringLabel",
            "className" : "anecdotes/miscellaneous"
          } ],
          "representations" : {
            "3" : {
              "type" : "S",
              "charArray" : "11349871#518230#0",
              "content" : "11349871#518230#0"
            },
            "2" : {
              "type" : "S",
              "charArray" : "I have no idea why this restaurant is so often overlooked .",
              "content" : "I have no idea why this restaurant is so often overlooked ."
            },
            "1" : {
              "type" : "DV",
              "content" : "0.46425262 0.35399577 0.014247257 -0.04691143 -0.0017684333 -0.08294116 -0.07622276 -0.09238766 0.27648985 0.013413088 0.016060771 -0.02654511 0.024713293 0.14490132 -0.035793062 0.07284232 -0.08632215 0.011490509 -0.007170627 -0.15495008 -0.14229205 -0.010877415 0.055235386 -0.06684649 -0.05201441 -0.061113458 0.03390224 -0.013252877 0.10448587 0.043718617 0.02793596 -0.010138017 -0.16638052 -0.04121063 0.0039775805 0.060744833 -0.03341171 0.06381044 -0.021872869 0.010312673 -0.05187379 -0.07216506 0.036757585 0.03518492 -0.009072164 -0.03990439 0.006652584 0.046769053 0.013825229 0.05216883 -0.028790167 -0.04513223 0.04951848 0.01917489 0.038754467 0.030651102 0.00604782 -0.035520416 0.10114807 -0.047862124 0.012937523 0.048542585 0.025304236 -0.020867184 0.014424613 0.016075505 0.021250166 -0.007572122 -0.08045759 -0.031811636 -0.0076121534 9.763724E-4 0.02420288 0.012714695 -0.023554338 9.843148E-4 -0.061899412 -0.0347026 0.034984455 0.0672573 -0.096507765 -0.035653487 0.012065407 0.03421136 -0.04868949 -0.010579151 -0.025108507 -0.016075078 0.07430853 0.010591374 -9.901244E-4 0.01890646 0.064911045 -0.006153353 -0.034076788 -0.031981237 0.0533776 -0.008442298 -0.034391683 -0.106999695 0.024756158 0.052090134 -0.10220351 -0.108941086 -0.09292851 -0.0042597647 0.023580309 0.0509135 -0.07270222 0.06468237 0.010760455 -0.04816484 0.04298953 -0.04985667 0.0351257 0.033073798 0.036156118 0.009561579 -0.07601066 -0.05836555 -0.076244034 -0.051474653 -0.026121184 0.0034950878 0.0017679664 0.06224629 0.011108253 0.02945611 -0.07419393 0.017408384 -0.016834494 0.039325558 0.029455295 0.036452632 0.09917464 -0.034258097 -0.030799905 0.007826932 -0.01148398 -0.003353597 -0.08140332 0.008600794 -0.01704033 -0.0113982335 0.07094133 -0.077445164 -0.010441577 -0.03971884 0.047940962 -0.008934738 0.043169454 -0.026136504 0.05689337 -0.06385175 0.014191755 -0.003930462 0.06262737 0.011840469 0.01299112 0.0038961591 -0.08378311 -0.041360542 -0.042323396 -0.066092916 0.015441251 0.0075416714 -0.006914637 0.0051607536 -0.015137331 -0.022318726 0.022118617 0.073915675 0.043349445 0.0062051727 0.004427128 -0.054248545 -0.0976382 0.040845804 -0.008919908 -0.031045714 -0.004887626 0.017264254 -0.078501984 -0.12759098 0.06915956 -0.05918547 0.053156644 -0.044443905 -0.0573231 -0.007719645 0.053929362 0.007579058 0.038035646 -0.020793336 0.058101017 0.014039757 0.010814798 -0.041742392 -0.024778834 0.028092645 -0.009688122 0.03381021 -0.04716388 0.0034546 0.034272186 0.034195207 0.02267012 0.012825037 -0.01116638 0.01476549 0.04924758 0.022613626 -0.043035656 -0.058165543 0.001994285 0.03966558 0.027063413 0.043835256 0.04335484 -0.007867253 0.0064623426 0.01242471 -0.025705699 0.014754276 0.028228413 -0.018996974 -0.004607524 7.08193E-4 -0.13626708 -0.024653086 0.021664107 0.060395893 -0.0020803795 -0.01803636 0.001044557 -0.08097686 -0.053911127 0.03918641 0.057908975 -0.023872586 -0.036722455 0.07437175 0.03979702 -0.0032798338 7.123264E-4 0.029710164 0.014154782 0.009282875 0.0057316255 -0.04907335"
            },
            "0" : {
              "type" : "V"
            }
          }
        }
      }, {
        "weight" : -0.49963275,
        "instance" : {
          "type" : "simple",
          "ID" : 25,
          "classificationLabels" : [ {
            "labelType" : "StringLabel",
            "className" : "anecdotes/miscellaneous"
          } ],
          "representations" : {
            "3" : {
              "type" : "S",
              "charArray" : "11349871#518230#1",
              "content" : "11349871#518230#1"
            },
            "2" : {
              "type" : "S",
              "charArray" : "From the moment you walk in , you feel like you 're in the perfect place .",
              "content" : "From the moment you walk in , you feel like you 're in the perfect place ."
            },
            "1" : {
              "type" : "DV",
              "content" : "0.42246163 0.3416561 -0.12448101 -0.048698694 -0.06289573 -0.09282142 -0.10418475 -0.07177368 0.25118676 0.027478732 0.048393577 0.04295534 0.014537212 0.12449278 -0.15288989 -0.06875338 -0.0020527646 -0.10101106 -0.110118374 -0.044793453 -0.07048305 -0.09342096 0.02736929 -0.08257077 -0.018288163 0.03344455 -0.081356116 0.07592071 0.119167835 -0.06143826 -0.010247974 -0.03288401 0.07069726 0.03328531 0.06370309 0.023713874 -0.052449938 0.03510551 -0.030248107 -0.038215347 0.028090494 -0.027042625 0.097753495 -0.06835677 -0.035040554 0.06863032 0.058669563 0.08257527 -0.037985243 0.015566222 -0.0027518345 -0.03587009 -0.039791398 -0.0049040844 -0.0065558935 0.04062157 0.04469204 0.006424533 -0.030974014 0.043047264 0.053861715 0.093178734 0.019554386 0.029058605 0.102273345 0.026430704 0.058025815 -0.09754165 -0.027273024 0.026893323 0.04805664 0.09267362 0.0012361554 -0.0012662297 0.072652675 0.09889356 -0.012616362 0.12740439 0.035913486 0.019357946 -0.09361207 -0.0064936546 0.0074606296 -0.04748888 -0.022620667 0.041599106 -0.045276426 0.03006629 -0.030952362 0.06316387 -0.04259881 0.018581895 0.03417991 -0.064731814 0.033978593 -0.02348889 0.03272092 -0.025867635 0.01804604 -0.032106504 0.0019278022 -0.023373043 0.020542393 0.031989686 0.13550147 -0.012782163 -0.015937656 0.02894971 0.026539505 0.09776685 -0.0350265 -0.068856254 -0.0027579074 0.08507757 0.015058569 -0.027560217 0.024630914 0.05330671 0.06666852 0.043282893 -0.054378115 -0.10687559 -0.0019110185 0.10807583 0.048315946 -0.04056776 -0.02363532 0.022864936 0.073123425 -0.024956476 0.015109421 0.08344511 -0.021540333 0.018368827 0.013459345 -0.051815767 -0.048769914 -0.015373751 -0.028526016 -0.035207853 0.04145647 -0.029808048 -0.019573696 -0.100319415 0.0356984 -0.08120077 -0.032911118 -0.040004116 -0.0059029185 -0.031953987 -0.08304063 -0.0030751242 -0.04538978 -0.011528005 0.0082720155 0.008626216 0.011603419 -0.016232342 0.046832785 0.054828666 0.03936181 0.009051757 -0.049218763 -0.044567045 0.041688286 -0.028466914 -0.083914615 0.005500268 -0.025747873 0.012021033 -0.11186767 0.022150476 0.0023195029 0.015364232 -0.069029145 -0.02206207 -0.075896926 0.012634554 0.051114358 -0.09053362 0.0035642434 -0.09118713 0.005022245 0.031890407 0.07344118 -0.0045223287 0.05235919 -0.008438949 -0.024441235 0.0036580504 0.024046583 0.006608232 -0.056211136 0.003661461 -0.0017661707 0.035614364 0.040087312 0.013510812 0.0026868961 0.022898916 -0.0021403106 -0.014646223 -0.011127626 0.018111197 -0.105516255 -0.019421058 0.0010925208 -0.049420714 -0.0094696125 0.024189409 -0.0269592 -1.7801835E-4 0.0013615947 -0.0175919 -0.017042842 -0.034906287 0.025463408 -0.050819643 -0.0055640405 0.02105853 0.040099993 0.003461113 -0.0019149105 0.014819946 0.01268049 0.053422965 -0.004174068 -0.08650893 0.04607724 -0.030226262 0.065685764 0.024186846 -0.039412152 0.0266033 -0.06778306 -0.054179214 -0.018571844 0.047789756 -0.036269892 -0.016317267 -0.032997057 0.018567266 -0.004773546 -0.03179422 -0.038175315 -0.008808072 0.07417067 0.028657788 0.019789932 0.002782076"
            },
            "0" : {
              "type" : "V"
            }
          }
        }
      }, {
        "weight" : -0.5784494,
        "instance" : {
          "type" : "simple",
          "ID" : 26,
          "classificationLabels" : [ {
            "labelType" : "StringLabel",
            "className" : "food"
          } ],
          "representations" : {
            "3" : {
              "type" : "S",
              "charArray" : "11651062#1264882#1",
              "content" : "11651062#1264882#1"
            },
            "2" : {
              "type" : "S",
              "charArray" : "i dont know what some people who rave about this hot dog are talking about .",
              "content" : "i dont know what some people who rave about this hot dog are talking about ."
            },
            "1" : {
              "type" : "DV",
              "content" : "0.46079853 0.2420807 0.10136924 -0.1689906 0.14053498 0.03240694 -0.034962565 -0.10254202 0.1314634 0.020870792 0.04671859 0.08522843 -0.103695124 -0.0028229197 -0.024386944 0.0082941 0.002801771 5.179257E-4 0.002773723 -0.11345283 -0.056760427 0.0063042324 -0.032800753 -0.12557504 -0.04135241 0.0038295952 0.04187417 -0.012065194 -0.059297845 -0.031618163 -0.13614409 -0.099064216 0.07375352 0.032420684 -0.061838172 -0.039761547 -0.04887249 -0.15822333 0.06937608 0.09678059 -0.020924466 0.017654315 0.06365751 -0.014411006 0.039318793 -0.023285065 -0.067341454 0.02887575 -0.07174575 -0.05132611 0.06132453 0.008148733 0.020558331 -0.019959375 -0.020289214 -0.0020823448 0.15386337 -0.05430573 -0.07892941 0.0014663289 -0.01181271 0.060946863 0.019826222 -0.0071448055 0.11158472 -0.032388028 -0.036591362 0.010751364 -0.04340273 0.019009573 0.11441406 0.0043518427 0.029298494 -0.042985495 -0.09764531 -0.025957696 -0.0028827714 -0.074316226 -0.0328326 -0.015691217 -0.08038604 0.014000272 0.054609098 0.09637228 -0.106621996 -0.019750549 0.024613004 0.0075720614 -0.003465712 0.061898157 0.074013434 0.049362175 0.027807886 0.060359437 0.10773314 -0.041177917 -0.0018319738 0.064225934 -0.042208467 0.07064017 -0.039247498 0.012705029 -0.009326276 0.08332343 -0.07370329 0.0039662276 0.02802533 -0.0018562471 0.03186315 0.04381188 0.013041876 -0.01659871 -0.022145392 -0.037180077 0.02158644 -0.041703288 -0.052038815 0.004267799 -0.050444573 7.127668E-5 0.059823327 -0.114364825 -0.005526821 0.0686206 -0.010304002 0.04693168 0.015296344 -0.024055105 -0.034126434 0.047726937 -0.025974272 0.006381635 0.029266836 -0.0037102527 0.013953633 0.020158904 -0.0010953009 -0.02346543 0.0063140965 0.03477604 0.065337144 0.01301583 -0.047609203 -0.032156695 0.0038209877 -0.09929833 -0.023961158 0.058523946 0.07190987 -0.02984162 -0.037430994 -0.011339059 -0.05470673 -0.060067423 0.10624997 -0.06339327 -0.051280923 0.080353335 0.080751196 0.0783411 0.057139833 0.027503826 -0.012413704 -0.020463085 -0.011366061 0.01334702 -0.017832821 0.0044772653 0.0292147 0.013327246 0.01205307 0.014977051 0.034349017 -0.04440293 0.018355545 0.045485128 0.003245498 0.12730454 0.011676671 0.021653576 0.021468434 -0.02886666 -0.0070712194 -0.08428012 -0.016582033 0.017537214 0.05551057 0.0684531 -0.058078725 0.024845371 0.045360345 0.011192506 0.04545659 -0.01183859 -0.05873808 -0.065340705 -0.024989728 -0.030560067 -0.09163955 -0.007050703 0.038128402 -0.01634058 -0.042358913 0.028400429 0.00572828 0.06267062 -0.09273599 0.062268898 0.027200077 0.09396199 -0.012656338 -7.98096E-4 -0.102490775 -0.019750156 -0.022025032 -0.013750074 0.013005045 -0.06563498 0.13139251 -5.5173796E-4 0.017714983 0.045283966 0.026531864 -0.0065641734 -0.004350313 -0.049600657 -0.027265877 0.1036702 0.046106502 0.0022327325 -0.031130463 -0.03364922 0.018478429 -0.008761672 0.025615714 -0.009446437 -9.5105753E-4 -0.022230487 -0.009003286 -0.0099987155 -0.12452295 0.013465678 0.025791073 0.017837044 -0.012989652 -0.042882044 0.029025184 0.030552823 -0.002264987 0.003505367"
            },
            "0" : {
              "type" : "V"
            }
          }
        }
      }, {
        "weight" : -0.5427659,
        "instance" : {
          "type" : "simple",
          "ID" : 27,
          "classificationLabels" : [ {
            "labelType" : "StringLabel",
            "className" : "ambience"
          }, {
            "labelType" : "StringLabel",
            "className" : "food"
          } ],
          "representations" : {
            "3" : {
              "type" : "S",
              "charArray" : "11359619#487952#3",
              "content" : "11359619#487952#3"
            },
            "2" : {
              "type" : "S",
              "charArray" : "it is a hidden delight complete with a quaint bar and good food .",
              "content" : "it is a hidden delight complete with a quaint bar and good food ."
            },
            "1" : {
              "type" : "DV",
              "content" : "0.46137902 0.17564203 0.0106893275 0.17750351 -0.044886284 -0.18148826 -0.25622866 -0.044959165 0.15490529 -0.052957516 -0.0460967 -0.08415177 0.019547427 0.06404306 -0.17841913 0.04432643 -7.69191E-4 0.0052791736 -0.0033207412 -0.13495837 -0.07247227 -0.050039995 0.092366986 -0.09789133 -0.07412358 0.013029246 -0.11540259 0.044029966 0.07914676 0.052614808 0.022316217 0.014976488 0.059602767 0.013576288 -0.0775687 0.039817385 -0.10902655 0.110631965 -0.012774607 0.033168912 0.06986106 -0.02009336 -0.09164863 -0.030530315 -0.10009756 0.03837471 -0.041865684 0.09230401 -1.13643066E-4 0.031357333 0.022911828 -0.01572752 0.019402878 -0.08882743 0.011049564 -0.059064616 0.09415487 -0.04986022 0.021589188 -0.012105529 0.055910233 0.06796792 -0.012173556 0.011636321 5.240756E-4 -0.047919597 0.036106925 -0.04415259 -0.1163613 -0.07261599 0.0010080999 0.022571359 0.015445301 -0.033135094 -0.005012586 0.025758928 -0.065931365 -0.014148094 0.040028874 -0.028961299 0.04265035 0.048090886 0.026741184 0.0502049 -0.06772117 -0.031800337 0.008437754 0.013640252 0.06848122 -0.045456722 0.060397655 -0.02713087 0.02564321 0.015081353 -0.06727108 -0.034221742 0.030076517 0.0041356236 -0.011543648 -0.10079101 0.03926937 0.05876738 0.06475719 0.016386652 0.0039639166 0.06715898 0.020623168 0.034782793 -0.028355017 0.067133956 -0.0043611024 0.038567487 -0.006210114 -0.06194792 -0.011750936 -0.04411159 0.013130385 0.01645797 -0.06531049 -0.057375647 -0.0341358 -0.08685363 -0.049808048 -0.063721746 -0.03684787 -0.06205181 -0.012784129 0.025859082 0.027971588 -0.05098536 0.012057062 0.024423763 -0.051987015 -0.0573779 0.015523353 -0.093219705 0.016481437 -0.0322646 -0.031917486 -0.042926606 -0.025241528 0.03225311 -0.040219918 0.01616765 0.059486233 0.024324682 -0.024121573 0.045426253 -0.0043480126 0.04282834 -0.043689393 0.0065697455 0.022804163 -0.029285112 0.10363859 -0.09950757 0.021395074 0.036457114 -0.040723696 0.018125536 -0.0644638 0.031205883 -0.032943223 -0.04579188 0.0022879005 0.03196639 0.0209385 0.046223126 -0.06419119 0.020389596 0.011310619 -0.054089967 -0.017643131 0.008478494 0.040625364 0.010433983 -0.018062491 0.03915477 0.003949439 -0.036500428 0.0055394936 0.018062307 0.007367331 -0.1095155 -0.027037038 -0.008061382 -0.030880159 0.011409556 0.01643168 -0.07834116 0.033472985 -0.056534678 0.08036376 -0.049180616 0.0021856131 -0.06185051 0.021583645 -0.1085734 -0.073207065 -0.02345045 0.049437456 0.006984258 0.03961633 -0.023165528 -0.11678708 -0.018596368 -0.033179417 -0.00753854 -0.0061352868 0.0077449987 0.0685015 -0.045671538 0.06792204 0.011584439 -0.030813988 0.047465116 -0.04914323 0.0049262675 0.050320923 0.061473757 0.0065884157 -0.023553094 -0.0528677 -0.039097153 -0.01911129 0.016160423 0.053656712 0.021687722 -0.010640144 -0.045124613 -0.04509347 -0.029539049 -0.06136262 0.08211598 0.023787687 -0.056692224 7.109027E-4 -0.0154266525 -0.0530911 -0.014934779 0.05326262 -0.0069473446 0.01816601 0.071232505 -0.041600943 0.043849915 -0.022616299 0.0047065583 0.032175954 -0.015402697"
            },
            "0" : {
              "type" : "V"
            }
          }
        }
      }, {
        "weight" : -0.3227175,
        "instance" : {
          "type" : "simple",
          "ID" : 28,
          "classificationLabels" : [ {
            "labelType" : "StringLabel",
            "className" : "anecdotes/miscellaneous"
          } ],
          "representations" : {
            "3" : {
              "type" : "S",
              "charArray" : "32893510#483382#2",
              "content" : "32893510#483382#2"
            },
            "2" : {
              "type" : "S",
              "charArray" : "I find that most Kosher restaurants are average to good , but this has been the best I 've eaten so far .",
              "content" : "I find that most Kosher restaurants are average to good , but this has been the best I 've eaten so far ."
            },
            "1" : {
              "type" : "DV",
              "content" : "0.452982 0.41766956 -0.039277237 0.03214302 0.043367643 -0.06962722 -0.23015913 -0.2091852 0.13761793 0.022480644 -0.014472527 -0.050281912 0.047587175 0.20695451 -0.084463514 0.08417931 -0.036270402 0.0072660153 0.06743027 -0.18462761 -0.067895725 0.08429989 0.049349286 0.0011490778 -0.020610135 0.034774248 -0.04132364 0.041485764 0.06011016 0.0014160107 -0.12906839 -0.016222022 -0.04746851 0.04924764 -0.010948845 0.037878204 -4.555217E-5 -0.055373643 -0.08323281 0.01120145 0.024821518 -0.034905553 -0.071644634 -0.04458898 -0.014388068 -0.04258827 0.010430957 0.022203522 0.017865378 0.07090026 0.070602104 -0.03266993 -0.023736455 0.051795404 -0.039469957 -0.0328017 -0.0031715983 -0.010058162 0.050414998 -0.035414077 0.11314727 -0.051870104 -0.0076374807 0.058441292 -0.042437 -0.03843383 -0.016489336 -0.013354736 -0.048274014 0.0048570614 0.061378755 -0.025014268 -0.0019628254 -0.0051904335 -0.010537587 -4.1399137E-4 -0.061300375 0.061188653 0.06007604 0.042584084 0.028424812 0.020149527 0.082248844 -0.022027144 -0.010011049 -0.02710896 -0.04731571 0.025710614 0.045206524 -0.008372813 -0.04321333 -0.030158969 0.030075345 -0.026232313 -0.013020929 -0.01611299 -0.036228754 -0.061379105 -0.010722269 -0.0536878 0.009458757 -0.00838932 -0.041434053 -0.0030059388 -0.011417329 0.08840743 0.10718414 0.1565377 0.06348018 0.117228314 0.013950283 -0.038594294 0.03501838 -0.037000902 0.021762433 -0.010021546 -0.008797141 -0.016696488 0.009236986 -5.751282E-4 -0.030144207 0.013468704 -0.022221008 -0.03452115 -0.02028944 0.0044096787 -7.679322E-4 0.057767052 0.0019993365 -0.031736653 0.02860625 0.06618401 -0.019861158 0.022867715 0.00857455 -0.00906797 -0.046735078 -0.006349773 0.0051660375 -0.011303648 -0.03692648 0.0052189236 -0.023757821 0.008839341 -0.011443931 -0.009419356 0.034288816 -0.020774605 0.018463256 -0.019676976 0.024529016 -0.045715325 -0.030447587 -0.038077954 -0.014452622 -0.015694335 0.04119468 -0.002939759 -0.061797604 0.039642807 -0.075051926 0.00515561 0.061393768 -0.019876948 -0.011242675 0.04103682 -0.027985571 -0.04088111 -0.009256633 -0.080706276 -0.050570212 -0.042765956 0.0838572 0.0016412484 0.012352423 0.044627286 6.4007926E-4 -0.008898071 -0.048327867 -0.008755418 0.029255934 -0.033114742 0.012507347 -0.044068 0.0780811 -0.043127768 0.070791095 -0.020724783 -0.025862794 0.00425287 -0.0033772648 -0.009780747 0.04719443 -0.023011724 0.04322118 0.011707137 -0.036221847 -0.055935122 -0.04866865 -0.01715618 0.010217803 0.04455397 -0.037123535 0.014234331 0.040764578 -0.0010113928 0.013402802 0.0102409385 -0.012653181 -0.054558963 -3.2130638E-4 -0.04954826 -0.1017197 -0.028069826 -0.0359715 -0.005501997 4.668641E-4 -0.011679067 0.027347043 -0.040556386 0.017009165 0.011875557 -0.035796482 0.045413304 0.005487907 0.01956672 0.0023385233 0.055226695 -0.021407768 -0.0020047254 0.030313062 -0.01614478 0.013162809 0.058119737 -0.051379684 -0.08778287 0.012060864 0.015628329 0.07921586 -0.034051538 -0.02664103 0.035048887 0.019674981 0.021197412 0.035490483 -0.004389487 -0.02016161 0.03805913 -0.048838597 0.0013813728"
            },
            "0" : {
              "type" : "V"
            }
          }
        }
      }, {
        "weight" : -0.5075288,
        "instance" : {
          "type" : "simple",
          "ID" : 29,
          "classificationLabels" : [ {
            "labelType" : "StringLabel",
            "className" : "service"
          } ],
          "representations" : {
            "3" : {
              "type" : "S",
              "charArray" : "11351628#404492#6",
              "content" : "11351628#404492#6"
            },
            "2" : {
              "type" : "S",
              "charArray" : "The waiters ALWAYS look angry and even ignore their high-tipping regulars .",
              "content" : "The waiters ALWAYS look angry and even ignore their high-tipping regulars ."
            },
            "1" : {
              "type" : "DV",
              "content" : "0.45328704 0.060682397 0.13253322 -0.27065656 0.10089739 -0.07749858 -0.041363712 -0.16174616 0.21213421 -0.078570955 -0.0016987014 0.043933026 -0.10054219 -0.11716652 0.027788008 -0.029278968 0.022918744 0.021731338 -0.06192869 -0.06273402 -0.0134149 0.057282344 -0.014602251 -0.07504746 0.0030531983 -0.114506744 0.030753773 -0.024518669 -0.027941784 -0.0060242037 -0.105010875 -0.054284234 -0.058601588 -0.031094406 -0.03257817 0.01351762 0.046319954 0.008302478 0.0011786064 0.086526245 -0.031998772 -0.042928275 0.03619042 -0.010250462 0.052930746 0.011058714 0.050847445 0.04798563 -0.10228381 -0.009549221 0.025555266 0.029527558 -0.052574564 0.01039725 0.0031257377 0.05479319 0.043326415 -0.0359429 -0.026805835 0.044681095 -0.044805318 -0.0021614842 0.040549506 0.024526088 0.030109838 0.039213754 -0.019817317 0.056269415 -0.05383945 -0.0033428734 -0.0889009 -0.029729785 0.12450637 0.059288174 -0.062465403 -0.008506564 -0.06620088 -0.001635269 0.0013943361 0.028217392 -0.11495063 -0.027709132 -6.604752E-4 -0.09107008 -0.0850917 -0.048909586 0.008236928 -0.05889062 0.06504105 -0.040799137 0.007480628 0.012627632 0.04514711 0.029411849 0.014438629 -0.042539444 0.056642037 -0.02840679 0.08670067 0.04099316 -0.0015747289 -0.052631855 -0.092347145 -0.04164863 0.042007454 0.046477515 0.013587763 0.014041594 -0.07453577 -0.036453046 0.0043913526 -0.010449437 0.015571861 0.07957042 -0.002854847 -0.028779635 0.0140026305 0.041101567 -0.024297666 -0.0016131384 -0.0013293513 -0.04195131 0.020193128 -0.0019078358 0.019679448 -0.017603906 -0.05573962 -0.07304177 0.05788156 -0.04890168 0.016562924 0.0134170335 0.032602724 0.0635951 0.0402297 -0.020220038 0.061471567 -6.382282E-5 -0.0300005 0.008549825 0.03163098 0.061665796 -0.02381298 -0.065095335 0.05065148 -0.022800893 0.027238503 -0.041052427 -0.020465067 -0.0061125676 -0.040353656 0.032036215 0.036566403 0.003053436 0.047051042 -0.003386645 -0.0018974075 0.058626715 -0.0962246 0.036467914 0.02964675 0.02268971 -0.0021839428 -0.019935597 -0.08373136 -0.06513573 -0.08025242 0.0031824803 -0.05960435 0.004605966 0.059492532 0.0033417973 0.01038727 0.067491286 0.030061783 -0.055197567 0.011879284 -0.07442948 0.014567536 -2.264565E-5 -0.056580428 0.0027737445 -0.01390904 -0.018720692 0.04111958 -0.008515775 -0.0060788845 -0.009235327 0.015499048 0.03572796 0.053305864 0.02626848 -0.07024774 -0.021239601 0.039158076 0.10704799 0.031249085 -0.062404588 0.042229194 -0.0031044376 0.07808658 0.13528495 -0.04562709 -0.01193793 -0.01878678 0.0323588 0.011435937 0.037299953 0.095423035 0.08096521 -0.008094374 0.07651524 0.002685213 0.040253527 0.030388432 0.040879782 -0.059286557 -0.06358276 0.01378489 0.0932794 0.18229261 0.06989218 0.012293382 0.0076158117 0.043036535 -0.0395417 -0.1663489 -0.082495674 -0.0020856613 0.00682668 -0.04356521 0.014271942 0.05800587 0.06095356 -0.0042452416 -0.07970933 0.0038815974 0.06438167 -0.07047422 0.033613462 0.060409293 0.03328968 0.08603469 -0.0052310945 0.009270701 -0.040307205 -0.0044297804 0.025325837 -0.034984425 -0.052561574"
            },
            "0" : {
              "type" : "V"
            }
          }
        }
      }, {
        "weight" : -0.32821053,
        "instance" : {
          "type" : "simple",
          "ID" : 30,
          "classificationLabels" : [ {
            "labelType" : "StringLabel",
            "className" : "ambience"
          } ],
          "representations" : {
            "3" : {
              "type" : "S",
              "charArray" : "35709141#1107179#0",
              "content" : "35709141#1107179#0"
            },
            "2" : {
              "type" : "S",
              "charArray" : "the atmosphere is very nice , and a welcome escape from the rest of the SI mall .",
              "content" : "the atmosphere is very nice , and a welcome escape from the rest of the SI mall ."
            },
            "1" : {
              "type" : "DV",
              "content" : "0.4622196 0.19713621 -0.08811249 0.13646069 -0.038045008 -0.22589071 -0.15706979 -0.015922083 0.20409392 -0.078092426 -0.02589756 -0.08694185 0.0045464183 0.012700827 -0.16896063 0.03864155 0.058505308 0.0146584315 -0.17726295 -0.05401506 -0.1108951 -0.07774646 0.015965302 -0.08520478 0.034671303 0.046508823 -0.040934462 0.026964864 0.11446597 -0.08162613 0.042235732 -0.041680172 -0.016040172 0.03363326 -0.019264387 0.046761382 -0.14122789 0.09030352 -0.0048716078 -0.016117573 -0.02655997 -0.07689401 0.022173222 -0.0249364 -0.08088535 -0.016688053 0.109282404 0.001034007 -0.007000422 0.07793037 0.02387109 0.009420312 0.11946194 -0.051052924 -0.10529287 -0.021240657 -0.02403511 0.014401875 -0.042398307 0.020986484 0.08341154 0.003871509 0.036186837 0.07822856 0.065594025 0.07367309 0.062311083 -0.07733796 -0.06832877 -0.0848048 0.094131574 0.05550663 0.019623525 -0.022328364 -0.03156834 -0.0026043614 -0.019935917 -0.045033026 -0.052471187 -0.0037735319 0.03702781 -0.026777698 -5.288245E-4 -0.043987606 -0.02136698 -0.04205902 0.0071368213 0.019830387 -0.058740523 -0.015201232 -0.051570397 -0.087228425 -0.04995047 0.025961375 -0.00320585 -0.047465425 0.048713166 0.03014735 0.06160827 0.05408931 -0.012137754 -0.094225585 0.013286731 0.13854732 -0.013568548 0.07169682 0.057085678 -0.009064072 0.0018855375 0.024873355 -0.07041715 -0.007055292 0.05467255 -0.01745611 -0.02769886 0.035520863 0.04853934 -0.013258351 -0.018002594 -0.06384931 -0.059254732 -0.020547183 -0.004348194 -0.042236697 0.002629861 -0.014171804 0.033139158 0.026518129 0.032092694 0.059046566 0.04194416 0.022182569 0.05366088 0.0052975165 -7.690689E-4 -0.008941518 0.002002591 0.016362092 0.016600002 -0.10841227 0.04240278 0.04522922 -0.11924182 -0.02050409 0.0519771 -0.06354443 -0.015351607 -0.0132234 -0.057574213 -0.04620353 -0.0062396266 -0.043588012 -0.07502429 -0.021287339 0.012913014 -0.07803764 0.0025284605 -0.049457636 0.0021956307 0.06295744 0.0036074903 -0.050739456 -0.0077442266 0.015809162 0.065195896 -0.04412398 -0.0047919685 -0.005437914 0.017673852 0.027238851 -0.042889487 -0.019293224 -0.022069257 -0.015818497 -0.024696218 0.046443477 -0.0319289 -0.047385916 0.002377586 -0.08181959 0.014841928 0.0011024686 -0.01752265 -0.05200963 -0.0011525314 -0.0084599685 4.8430552E-4 -0.026013166 0.011770578 -0.0338844 -0.045322143 -0.0072471104 0.032832563 0.021689907 0.07902328 -0.06476566 -0.006093896 0.057240058 -0.032363072 0.021520948 -0.04490537 0.016519763 -0.059210993 -0.0075101717 -0.013170119 0.029055424 -0.032348096 0.015964244 -0.023498138 -0.050209872 0.05781377 -0.020265833 0.058437373 -0.029371845 0.036836747 0.016597738 -0.06428457 -0.001907067 0.0042094486 -0.08686668 -0.048371926 0.01799223 -0.04005343 0.008695415 -0.016001945 0.023809979 -0.051626798 0.08456641 -0.0030754022 -0.028598525 0.02773171 0.008004417 0.022188297 0.038810138 -0.06734569 0.009652386 0.069984086 0.088382915 -0.024735995 0.03717917 0.017059071 0.063067645 -0.031213183 -0.007319388 0.012268486 -0.03532505 0.014403282 -0.040853664 0.005346509 -0.028775167"
            },
            "0" : {
              "type" : "V"
            }
          }
        }
      }, {
        "weight" : 1.2052842,
        "instance" : {
          "type" : "simple",
          "ID" : 31,
          "classificationLabels" : [ {
            "labelType" : "StringLabel",
            "className" : "price"
          }, {
            "labelType" : "StringLabel",
            "className" : "food"
          } ],
          "representations" : {
            "3" : {
              "type" : "S",
              "charArray" : "32935211#1468239#1",
              "content" : "32935211#1468239#1"
            },
            "2" : {
              "type" : "S",
              "charArray" : "Yes , they 're a bit more expensive then typical , but then again , so is their food .",
              "content" : "Yes , they 're a bit more expensive then typical , but then again , so is their food ."
            },
            "1" : {
              "type" : "DV",
              "content" : "0.41330108 0.3659669 0.0010556425 0.015640149 -0.0040767044 -0.12464161 -0.18965031 -0.11993044 0.17227036 0.030866854 0.014454137 0.019151116 0.0040396824 0.24578007 -0.053731572 0.07710394 -0.07258502 0.13491449 -0.14380412 -0.14184849 -0.09818181 0.07757588 0.040047992 0.016192954 0.15622331 -0.07726736 0.012861895 0.016942985 0.073388726 -0.052201953 -0.009967028 -0.07364322 -0.0073974733 0.05894696 0.03652494 0.030293915 -0.09741176 -0.059394542 0.0042673782 8.8702975E-4 4.2461444E-4 -0.022561844 -0.05254076 -0.07271314 0.02318663 -0.014214473 -0.0145985875 0.047076106 -0.008562885 -0.0056371326 0.069718696 0.018004162 -0.03815943 0.029589614 -0.0056118458 0.020394986 -5.563045E-5 0.04919661 0.003914878 -0.00674921 0.062414702 -0.13880715 0.080721885 0.06999256 -0.07161394 0.04093984 0.052174155 -0.035001006 -0.018391363 -0.038528528 0.020384245 0.027450997 -0.06289147 -0.035573512 0.018627353 -0.033484895 -0.044524163 -0.021587167 -0.075354554 0.046071965 -0.012868526 -0.044966776 -0.0046714456 -0.022132702 0.027393203 -0.0015111356 0.088523895 -0.020268654 -0.046311498 -0.087984316 -0.025918283 -0.03383592 -0.0068257046 -0.06160599 0.010993113 0.0146064265 0.05123743 0.012262374 -0.017559305 -0.045569744 -0.0036873717 -0.013637264 0.06795638 -0.09687355 -0.0047501614 0.046466433 0.05225331 0.022529414 0.0024409054 0.0022892528 0.05463489 -0.0041159852 0.04990212 -0.09665911 0.10349416 -0.05061948 -0.019186687 -0.053860918 -0.03398884 -0.07003616 0.023347052 -0.08605551 -0.009123778 -0.022916395 -0.011068261 -0.025560346 0.057728637 0.03825932 -0.0923842 -0.049567435 -0.020851912 -0.040966835 -0.03130422 0.002259855 0.11019982 0.0038202873 -9.938908E-4 -0.043531504 -1.47141445E-5 -9.7646844E-4 0.044410896 0.026983157 -0.02083202 0.044296466 0.07282258 0.022022853 -0.040638473 0.003996968 0.0620607 0.06534165 0.073125295 -0.03130429 0.029579695 -0.02843887 -0.0048923395 0.09904838 0.063727215 0.052991208 -0.029451326 -0.052487273 0.039606318 0.018798716 4.6093145E-4 0.058012124 0.083831236 -0.0019811937 -0.029481007 0.030092446 -0.04202059 -0.04958552 -0.02557785 0.02700165 0.0429632 0.059799902 -0.021413635 -0.008541807 -0.029112503 -0.005888598 0.04184707 0.0034045633 0.035537522 -0.009460568 0.028973378 -0.0027878846 0.024881793 -0.0063979365 0.022534149 0.04362018 0.1103751 -0.019697577 0.043432347 -0.046064876 -0.015543466 -0.0013077006 -0.011528921 -0.030948997 -0.0353929 -0.028087368 0.016622081 0.02853326 -0.0038423627 0.0011423861 -0.0150572825 0.06596822 -0.015265717 -0.0031987773 -0.054539714 -0.052375197 -0.0072082966 -0.07042705 -0.0056388234 -0.006087555 0.026080076 0.01474298 0.005590794 -0.048240524 0.033509605 -0.047546607 0.014856704 -0.02866444 0.078974724 -0.012466745 0.0063946988 -0.03946008 -4.1309666E-4 -0.037893575 0.039056197 0.0687621 -0.013748689 -0.042015623 0.030702036 0.008782814 -0.03460345 0.0021747758 -0.014681847 -0.021126337 -0.023407087 -0.007770146 0.004086866 0.025529202 0.014464203 0.06295657 -0.04120988 -0.010901383 -0.018846963 -0.024756193 0.08857578 -0.018013828 -0.0014558493 -0.008649128"
            },
            "0" : {
              "type" : "V"
            }
          }
        }
      }, {
        "weight" : -0.53122014,
        "instance" : {
          "type" : "simple",
          "ID" : 32,
          "classificationLabels" : [ {
            "labelType" : "StringLabel",
            "className" : "ambience"
          }, {
            "labelType" : "StringLabel",
            "className" : "food"
          } ],
          "representations" : {
            "3" : {
              "type" : "S",
              "charArray" : "11313431#524365#3",
              "content" : "11313431#524365#3"
            },
            "2" : {
              "type" : "S",
              "charArray" : "Once we sailed , the top-notch food and live entertainment sold us on a unforgettable evening .",
              "content" : "Once we sailed , the top-notch food and live entertainment sold us on a unforgettable evening ."
            },
            "1" : {
              "type" : "DV",
